<?xml version="1.0"?>
<opencv_storage>
<opencv_ml_svm>
  <format>3</format>
  <svmType>C_SVC</svmType>
  <kernel>
    <type>RBF</type>
    <gamma>2.5000000000000001e-02</gamma></kernel>
  <C>7.</C>
  <term_criteria><epsilon>1.1920928955078125e-07</epsilon>
    <iterations>1000</iterations></term_criteria>
  <var_count>400</var_count>
  <class_count>9</class_count>
  <class_labels type_id="opencv-matrix">
    <rows>9</rows>
    <cols>1</cols>
    <dt>i</dt>
    <data>
      1 2 3 4 5 6 7 8 9</data></class_labels>
  <sv_total>193</sv_total>
  <support_vectors>
    <_>
      0. 0. 0. 0. 0. 0. 1.05882362e-01 4.11764741e-01 5.01960814e-01
      6.19607866e-01 6.31372571e-01 6.66666687e-01 6.19607866e-01
      4.39215720e-01 1.13725498e-01 3.13725509e-02 0. 0. 0. 0. 0. 0. 0.
      0. 0. 3.92156877e-02 2.98039228e-01 6.54901981e-01 7.37254918e-01
      7.56862819e-01 7.56862819e-01 7.64705956e-01 7.52941251e-01
      6.66666687e-01 4.94117677e-01 1.80392161e-01 7.84313772e-03 0. 0.
      0. 0. 0. 0. 0. 0. 1.17647067e-01 5.88235319e-01 7.68627524e-01
      6.70588255e-01 5.49019635e-01 5.41176498e-01 5.41176498e-01
      6.23529434e-01 7.60784388e-01 7.05882370e-01 2.66666681e-01
      1.17647070e-02 0. 0. 0. 0. 0. 0. 0. 0. 1.29411772e-01
      6.19607866e-01 7.64705956e-01 4.47058856e-01 1.21568635e-01
      2.27450997e-01 2.47058839e-01 3.37254912e-01 7.09803939e-01
      7.05882370e-01 2.66666681e-01 1.17647070e-02 0. 0. 0. 0. 0. 0. 0.
      0. 1.29411772e-01 6.19607866e-01 7.64705956e-01 4.43137288e-01
      3.37254912e-01 6.54901981e-01 5.88235319e-01 3.84313762e-01
      7.05882370e-01 7.05882370e-01 2.66666681e-01 1.17647070e-02 0. 0.
      0. 0. 0. 0. 0. 0. 1.29411772e-01 6.19607866e-01 7.72549093e-01
      5.56862772e-01 5.56862772e-01 7.72549093e-01 6.78431392e-01
      5.13725519e-01 7.29411781e-01 7.29411781e-01 3.88235331e-01
      5.88235334e-02 0. 0. 0. 0. 0. 0. 0. 0. 1.29411772e-01
      6.15686297e-01 7.05882370e-01 6.54901981e-01 7.52941251e-01
      7.84313798e-01 7.76470661e-01 7.60784388e-01 7.80392230e-01
      7.80392230e-01 6.31372571e-01 1.56862751e-01 0. 0. 0. 0. 0. 0. 0.
      3.92156886e-03 1.52941182e-01 6.19607866e-01 5.49019635e-01
      3.52941185e-01 5.68627477e-01 7.17647076e-01 7.68627524e-01
      6.82352960e-01 6.70588255e-01 7.76470661e-01 6.58823550e-01
      1.68627456e-01 0. 0. 0. 0. 0. 0. 0. 7.45098069e-02 4.11764741e-01
      7.17647076e-01 5.21568656e-01 1.21568635e-01 3.56862754e-01
      7.05882370e-01 6.66666687e-01 2.82352954e-01 3.88235331e-01
      7.37254918e-01 6.54901981e-01 1.68627456e-01 0. 0. 0. 0. 0. 0.
      1.96078438e-02 3.13725501e-01 6.86274529e-01 7.72549093e-01
      5.21568656e-01 1.09803930e-01 4.23529446e-01 7.64705956e-01
      6.19607866e-01 1.33333340e-01 1.33333340e-01 5.25490224e-01
      6.82352960e-01 3.05882365e-01 3.92156877e-02 0. 0. 0. 0. 0.
      3.13725509e-02 4.23529446e-01 7.64705956e-01 7.76470661e-01
      5.21568656e-01 1.09803930e-01 4.23529446e-01 7.64705956e-01
      6.19607866e-01 1.29411772e-01 3.13725509e-02 4.23529446e-01
      7.56862819e-01 5.88235319e-01 1.17647067e-01 0. 0. 0. 0. 0.
      5.09803966e-02 4.43137288e-01 7.56862819e-01 6.98039234e-01
      3.88235331e-01 7.45098069e-02 3.13725501e-01 6.86274529e-01
      6.15686297e-01 1.29411772e-01 3.13725509e-02 4.23529446e-01
      7.64705956e-01 6.19607866e-01 1.29411772e-01 0. 0. 0. 0.
      7.84313772e-03 1.52941182e-01 5.45098066e-01 6.86274529e-01
      3.17647070e-01 8.23529437e-02 5.09803966e-02 1.45098045e-01
      5.52941203e-01 6.19607866e-01 1.68627456e-01 5.49019650e-02
      4.23529446e-01 7.64705956e-01 6.19607866e-01 1.29411772e-01 0. 0.
      0. 0. 7.84313772e-03 1.52941182e-01 5.45098066e-01 6.43137276e-01
      2.23529428e-01 3.05882365e-01 5.09803951e-01 5.64705908e-01
      6.94117665e-01 7.01960802e-01 5.64705908e-01 4.23529446e-01
      5.45098066e-01 7.72549093e-01 6.19607866e-01 1.29411772e-01 0. 0.
      0. 0. 3.52941193e-02 3.64705890e-01 7.37254918e-01 6.54901981e-01
      3.25490206e-01 6.31372571e-01 7.76470661e-01 7.37254918e-01
      5.68627477e-01 4.50980425e-01 7.01960802e-01 7.64705956e-01
      7.64705956e-01 7.84313798e-01 6.66666687e-01 2.66666681e-01
      4.70588282e-02 0. 0. 7.84313772e-03 1.88235313e-01 5.96078455e-01
      7.29411781e-01 5.17647088e-01 2.82352954e-01 6.54901981e-01
      7.45098054e-01 4.54901993e-01 1.68627456e-01 3.49019617e-01
      7.05882370e-01 7.84313798e-01 7.84313798e-01 7.84313798e-01
      7.72549093e-01 6.62745118e-01 3.09803933e-01 1.96078438e-02 0.
      1.17647070e-02 2.66666681e-01 6.86274529e-01 4.74509835e-01
      1.21568635e-01 1.80392161e-01 6.43137276e-01 5.25490224e-01
      1.33333340e-01 1.56862754e-02 1.96078449e-01 6.66666687e-01
      7.84313798e-01 7.60784388e-01 6.23529434e-01 5.96078455e-01
      7.29411781e-01 5.25490224e-01 1.41176477e-01 0. 5.88235334e-02
      3.88235331e-01 7.01960802e-01 3.64705890e-01 1.96078438e-02
      1.68627456e-01 6.43137276e-01 5.25490224e-01 1.33333340e-01
      7.84313772e-03 1.68627456e-01 6.58823550e-01 7.76470661e-01
      6.03921592e-01 2.19607860e-01 2.11764723e-01 6.62745118e-01
      7.33333349e-01 3.60784322e-01 0. 1.56862751e-01 6.31372571e-01
      7.52941251e-01 4.07843173e-01 1.96078449e-01 3.56862754e-01
      6.94117665e-01 7.37254918e-01 3.88235331e-01 1.96078449e-01
      3.56862754e-01 6.98039234e-01 7.64705956e-01 5.17647088e-01
      2.74509817e-01 3.60784322e-01 6.98039234e-01 7.56862819e-01
      3.84313762e-01 0. 1.29411772e-01 5.60784340e-01 7.56862819e-01
      6.70588255e-01 6.74509823e-01 7.45098054e-01 7.76470661e-01
      7.76470661e-01 6.70588255e-01 6.74509823e-01 7.45098054e-01
      7.76470661e-01 7.84313798e-01 7.56862819e-01 7.37254918e-01
      7.45098054e-01 7.76470661e-01 7.56862819e-01 3.84313762e-01</_>
    <_>
      0. 0. 0. 0. 7.05882385e-02 4.70588267e-01 7.56862819e-01
      7.84313798e-01 7.84313798e-01 7.84313798e-01 7.84313798e-01
      7.84313798e-01 7.84313798e-01 7.56862819e-01 3.64705890e-01
      1.96078438e-02 0. 0. 0. 0. 0. 0. 0. 0. 5.09803966e-02
      3.72549027e-01 7.17647076e-01 7.84313798e-01 7.84313798e-01
      7.56862819e-01 7.37254918e-01 7.45098054e-01 7.76470661e-01
      7.64705956e-01 4.70588267e-01 9.80392247e-02 3.92156886e-03 0. 0.
      0. 0. 0. 0. 0. 7.45098069e-02 4.94117677e-01 7.64705956e-01
      7.84313798e-01 7.72549093e-01 6.27451003e-01 4.58823562e-01
      4.11764741e-01 6.98039234e-01 7.76470661e-01 6.00000024e-01
      1.88235313e-01 7.84313772e-03 0. 0. 0. 0. 0. 0. 0. 7.84313753e-02
      5.21568656e-01 7.72549093e-01 7.21568644e-01 6.98039234e-01
      7.49019623e-01 6.15686297e-01 3.21568638e-01 6.58823550e-01
      7.76470661e-01 6.19607866e-01 2.03921586e-01 7.84313772e-03 0. 0.
      0. 0. 0. 0. 0. 7.84313753e-02 5.21568656e-01 7.72549093e-01
      7.21568644e-01 6.98039234e-01 7.76470661e-01 6.58823550e-01
      3.33333343e-01 6.58823550e-01 7.84313798e-01 7.05882370e-01
      2.66666681e-01 1.17647070e-02 0. 0. 0. 0. 0. 0. 0. 9.80392247e-02
      5.33333361e-01 7.76470661e-01 7.84313798e-01 7.84313798e-01
      7.84313798e-01 6.98039234e-01 4.74509835e-01 6.98039234e-01
      7.84313798e-01 7.05882370e-01 2.66666681e-01 1.17647070e-02 0. 0.
      0. 0. 0. 0. 1.96078438e-02 3.13725501e-01 6.86274529e-01
      7.80392230e-01 7.84313798e-01 7.64705956e-01 7.64705956e-01
      7.76470661e-01 7.56862819e-01 7.76470661e-01 7.84313798e-01
      7.05882370e-01 2.66666681e-01 1.17647070e-02 0. 0. 0. 0. 0. 0.
      3.13725509e-02 4.23529446e-01 7.64705956e-01 7.80392230e-01
      7.01960802e-01 5.52941203e-01 6.50980413e-01 7.37254918e-01
      6.35294139e-01 7.21568644e-01 7.80392230e-01 7.05882370e-01
      2.66666681e-01 1.17647070e-02 0. 7.84313772e-03 1.25490203e-01 0.
      0. 0. 3.13725509e-02 4.23529446e-01 7.56862819e-01 6.98039234e-01
      4.23529446e-01 4.15686309e-01 7.37254918e-01 6.62745118e-01
      2.54901975e-01 3.96078467e-01 7.29411781e-01 7.05882370e-01
      2.66666681e-01 1.17647070e-02 0. 2.74509825e-02 3.52941185e-01 0.
      0. 0. 5.09803966e-02 4.43137288e-01 6.78431392e-01 3.21568638e-01
      1.60784319e-01 4.74509835e-01 7.64705956e-01 6.58823550e-01
      1.76470593e-01 2.66666681e-01 7.05882370e-01 7.05882370e-01
      2.66666681e-01 1.17647070e-02 0. 7.84313772e-03 1.25490203e-01 0.
      0. 1.17647070e-02 2.58823544e-01 6.50980413e-01 6.50980413e-01
      1.72549024e-01 1.72549024e-01 5.76470613e-01 7.72549093e-01
      6.58823550e-01 1.76470593e-01 2.66666681e-01 7.05882370e-01
      7.05882370e-01 2.66666681e-01 1.17647070e-02 0. 0. 0. 0. 0.
      1.96078438e-02 3.64705890e-01 7.56862819e-01 6.58823550e-01
      1.68627456e-01 3.52941193e-02 3.84313762e-01 7.56862819e-01
      6.58823550e-01 1.76470593e-01 2.66666681e-01 7.05882370e-01
      7.29411781e-01 3.88235331e-01 5.88235334e-02 0. 0. 0. 0. 0.
      3.52941193e-02 3.84313762e-01 7.56862819e-01 6.98039234e-01
      3.60784322e-01 2.58823544e-01 4.94117677e-01 7.64705956e-01
      6.98039234e-01 3.64705890e-01 4.27451015e-01 7.29411781e-01
      7.80392230e-01 6.31372571e-01 1.56862751e-01 0. 0. 0. 0.
      1.56862754e-02 2.11764723e-01 6.03921592e-01 7.76470661e-01
      7.76470661e-01 7.45098054e-01 7.37254918e-01 7.56862819e-01
      7.84313798e-01 7.76470661e-01 7.45098054e-01 7.52941251e-01
      7.80392230e-01 7.84313798e-01 6.98039234e-01 3.05882365e-01
      3.92156877e-02 0. 0. 0. 1.17647067e-01 5.33333361e-01
      7.60784388e-01 7.84313798e-01 7.84313798e-01 7.84313798e-01
      7.84313798e-01 7.84313798e-01 7.84313798e-01 7.84313798e-01
      7.84313798e-01 7.84313798e-01 7.84313798e-01 7.84313798e-01
      7.76470661e-01 6.39215708e-01 2.43137270e-01 2.35294141e-02 0.
      7.84313753e-02 3.05882365e-01 6.98039234e-01 7.84313798e-01
      7.37254918e-01 6.47058845e-01 7.33333349e-01 7.64705956e-01
      6.50980413e-01 5.72549045e-01 7.01960802e-01 7.80392230e-01
      7.84313798e-01 7.84313798e-01 7.84313798e-01 7.84313798e-01
      7.68627524e-01 5.72549045e-01 1.80392161e-01 7.84313772e-03
      1.60784319e-01 4.47058856e-01 7.37254918e-01 7.45098054e-01
      4.54901993e-01 2.47058839e-01 6.23529434e-01 5.96078455e-01
      2.07843155e-01 1.29411772e-01 5.37254930e-01 7.76470661e-01
      7.76470661e-01 6.70588255e-01 5.68627477e-01 6.78431392e-01
      7.72549093e-01 7.49019623e-01 4.00000036e-01 2.74509825e-02
      1.56862754e-02 1.96078449e-01 6.50980413e-01 5.45098066e-01
      1.80392161e-01 2.58823544e-01 6.58823550e-01 5.21568656e-01
      7.84313753e-02 7.45098069e-02 4.94117677e-01 7.64705956e-01
      7.68627524e-01 4.66666698e-01 1.17647067e-01 2.66666681e-01
      6.66666687e-01 7.64705956e-01 4.23529446e-01 3.13725509e-02
      7.84313753e-02 3.05882365e-01 6.90196097e-01 6.50980413e-01
      3.33333343e-01 4.27451015e-01 7.17647076e-01 5.96078455e-01
      2.07843155e-01 8.23529437e-02 2.90196091e-01 6.78431392e-01
      7.76470661e-01 6.58823550e-01 3.64705890e-01 2.15686291e-01
      6.19607866e-01 7.64705956e-01 4.23529446e-01 3.13725509e-02
      2.39215702e-01 5.88235319e-01 7.76470661e-01 7.76470661e-01
      6.58823550e-01 6.07843161e-01 7.41176486e-01 7.64705956e-01
      6.50980413e-01 5.45098066e-01 5.80392182e-01 7.33333349e-01
      7.84313798e-01 7.84313798e-01 7.05882370e-01 4.74509835e-01
      6.66666687e-01 7.64705956e-01 4.23529446e-01 3.13725509e-02</_>
    <_>
      0. 0. 0. 0. 0. 0. 0. 0. 0. 1.17647070e-02 5.09803966e-02
      1.96078438e-02 0. 0. 0. 0. 0. 0. 0. 0. 0. 0. 0. 0. 3.92156886e-03
      3.13725509e-02 9.01960805e-02 2.11764723e-01 2.47058839e-01
      2.74509817e-01 3.92156899e-01 3.05882365e-01 2.47058839e-01
      2.35294133e-01 1.13725498e-01 7.84313772e-03 0. 0. 0. 0. 0. 0. 0.
      0. 7.05882385e-02 3.49019617e-01 5.60784340e-01 6.35294139e-01
      5.37254930e-01 5.21568656e-01 6.78431392e-01 7.41176486e-01
      7.13725507e-01 5.92156887e-01 3.45098048e-01 1.13725498e-01
      1.17647070e-02 0. 0. 0. 0. 0. 0. 3.92156877e-02 2.58823544e-01
      3.96078467e-01 6.39215708e-01 6.35294139e-01 2.74509817e-01
      1.29411772e-01 5.09803951e-01 7.56862819e-01 5.96078455e-01
      2.35294133e-01 3.84313762e-01 4.03921604e-01 7.84313753e-02 0. 0.
      0. 0. 3.92156886e-03 9.01960805e-02 3.45098048e-01 3.45098048e-01
      1.29411772e-01 3.09803933e-01 6.15686297e-01 3.37254912e-01
      4.70588282e-02 2.50980407e-01 6.07843161e-01 3.96078467e-01
      8.23529437e-02 3.80392194e-01 5.33333361e-01 1.56862751e-01
      7.84313772e-03 0. 0. 0. 7.84313772e-03 1.88235313e-01
      5.49019635e-01 3.33333343e-01 1.96078438e-02 1.64705887e-01
      6.23529434e-01 4.00000036e-01 2.74509825e-02 1.29411772e-01
      5.09803951e-01 2.74509817e-01 3.92156877e-02 1.60784319e-01
      4.35294151e-01 4.19607878e-01 8.62745121e-02 0. 0. 0.
      1.56862754e-02 2.15686291e-01 3.64705890e-01 1.25490203e-01
      7.84313772e-03 1.64705887e-01 5.45098066e-01 2.94117659e-01
      1.96078438e-02 9.41176564e-02 4.35294151e-01 3.41176480e-01
      5.09803966e-02 1.17647070e-02 1.76470593e-01 5.21568656e-01
      2.50980407e-01 2.35294141e-02 0. 0. 1.17647067e-01 5.13725519e-01
      3.96078467e-01 3.13725509e-02 0. 1.64705887e-01 6.07843161e-01
      3.80392194e-01 2.74509825e-02 9.41176564e-02 3.96078467e-01
      2.43137270e-01 3.13725509e-02 3.13725509e-02 2.74509817e-01
      6.47058845e-01 4.70588267e-01 7.05882385e-02 0. 0. 1.64705887e-01
      6.23529434e-01 4.00000036e-01 2.74509825e-02 7.84313772e-03
      1.88235313e-01 4.78431404e-01 1.84313729e-01 7.84313772e-03
      1.29411772e-01 6.00000024e-01 4.94117677e-01 7.45098069e-02
      3.92156886e-03 1.13725498e-01 4.19607878e-01 3.49019617e-01
      7.05882385e-02 0. 1.56862754e-02 1.88235313e-01 4.78431404e-01
      1.84313729e-01 3.52941193e-02 2.11764723e-01 5.17647088e-01
      4.78431404e-01 7.84313753e-02 0. 1.29411772e-01 6.11764729e-01
      5.96078455e-01 1.84313729e-01 7.84313772e-03 7.84313772e-03
      1.80392161e-01 5.49019635e-01 4.11764741e-01 1.29411772e-01
      3.05882365e-01 5.09803951e-01 4.78431404e-01 7.84313753e-02
      7.45098069e-02 4.94117677e-01 7.05882370e-01 3.96078467e-01
      5.49019650e-02 0. 8.62745121e-02 4.27451015e-01 5.92156887e-01
      4.78431404e-01 1.33333340e-01 7.84313772e-03 1.68627456e-01
      6.50980413e-01 6.31372571e-01 2.50980407e-01 5.52941203e-01
      7.01960802e-01 5.37254930e-01 1.21568635e-01 1.21568635e-01
      5.05882382e-01 5.05882382e-01 1.21568635e-01 2.74509825e-02
      1.96078438e-02 7.84313772e-03 5.88235334e-02 3.21568638e-01
      6.66666687e-01 3.64705890e-01 3.52941193e-02 1.68627456e-01
      6.43137276e-01 5.49019635e-01 1.88235313e-01 7.52941251e-01
      7.72549093e-01 7.01960802e-01 5.64705908e-01 5.64705908e-01
      6.70588255e-01 5.52941203e-01 3.05882365e-01 3.49019617e-01
      3.49019617e-01 2.50980407e-01 3.09803933e-01 5.72549045e-01
      7.49019623e-01 6.23529434e-01 3.49019617e-01 3.64705890e-01
      6.94117665e-01 7.52941251e-01 6.35294139e-01 7.05882370e-01
      5.92156887e-01 5.41176498e-01 5.49019635e-01 6.70588255e-01
      7.37254918e-01 6.19607866e-01 5.88235319e-01 4.03921604e-01
      3.84313762e-01 4.82352972e-01 5.41176498e-01 6.35294139e-01
      6.70588255e-01 7.68627524e-01 7.13725507e-01 5.96078455e-01
      6.94117665e-01 7.37254918e-01 7.60784388e-01 3.80392194e-01
      1.52941182e-01 5.49019650e-02 1.80392161e-01 5.49019635e-01
      6.50980413e-01 2.43137270e-01 1.45098045e-01 4.70588282e-02
      2.74509825e-02 4.70588282e-02 9.01960805e-02 1.64705887e-01
      3.88235331e-01 7.37254918e-01 6.62745118e-01 2.47058839e-01
      2.11764723e-01 2.54901975e-01 3.96078467e-01 3.13725509e-02
      1.17647070e-02 1.56862754e-02 3.21568638e-01 6.90196097e-01
      5.33333361e-01 1.17647067e-01 0. 0. 0. 0. 0. 1.17647070e-02
      2.15686291e-01 5.88235319e-01 5.49019635e-01 1.29411772e-01 0.
      7.84313772e-03 1.25490203e-01 1.56862754e-02 2.74509825e-02
      3.52941193e-02 2.58823544e-01 5.64705908e-01 3.05882365e-01
      3.92156877e-02 3.92156877e-02 2.74509825e-02 0. 0. 0.
      3.92156886e-03 1.13725498e-01 4.86274540e-01 5.45098066e-01
      1.29411772e-01 0. 7.84313772e-03 1.01960793e-01 2.90196091e-01
      3.80392194e-01 3.88235331e-01 5.80392182e-01 7.09803939e-01
      5.72549045e-01 3.72549027e-01 4.82352972e-01 4.03921604e-01
      2.35294133e-01 1.49019614e-01 2.03921586e-01 1.84313729e-01
      1.80392161e-01 5.29411793e-01 6.82352960e-01 3.17647070e-01
      8.23529437e-02 5.09803966e-02 5.09803966e-02 2.11764723e-01
      2.86274523e-01 4.58823562e-01 4.07843173e-01 4.15686309e-01
      5.56862772e-01 6.23529434e-01 5.60784340e-01 5.17647088e-01
      4.90196109e-01 5.21568656e-01 6.43137276e-01 6.23529434e-01
      6.03921592e-01 7.05882370e-01 7.33333349e-01 6.94117665e-01
      5.72549045e-01 5.41176498e-01 5.41176498e-01 0. 1.17647070e-02
      3.92156877e-02 2.74509825e-02 2.74509825e-02 7.84313753e-02
      1.60784319e-01 8.23529437e-02 5.09803966e-02 7.05882385e-02
      1.80392161e-01 2.43137270e-01 2.47058839e-01 2.47058839e-01
      2.47058839e-01 3.01960796e-01 5.13725519e-01 5.92156887e-01
      6.70588255e-01 6.78431392e-01</_>
    <_>
      0. 0. 0. 0. 7.84313753e-02 5.21568656e-01 7.56862819e-01
      7.37254918e-01 7.76470661e-01 7.84313798e-01 7.84313798e-01
      7.84313798e-01 7.84313798e-01 7.56862819e-01 3.64705890e-01
      1.96078438e-02 0. 0. 0. 0. 0. 0. 0. 0. 9.80392247e-02
      5.33333361e-01 6.62745118e-01 4.31372583e-01 5.29411793e-01
      5.60784340e-01 5.80392182e-01 7.33333349e-01 7.84313798e-01
      7.33333349e-01 3.41176480e-01 1.96078438e-02 0. 0. 0. 0. 0. 0. 0.
      1.96078438e-02 3.13725501e-01 6.86274529e-01 6.66666687e-01
      3.56862754e-01 4.15686309e-01 4.19607878e-01 3.80392194e-01
      6.78431392e-01 7.72549093e-01 5.25490224e-01 1.33333340e-01
      7.84313772e-03 0. 0. 0. 0. 0. 0. 0. 3.13725509e-02 4.23529446e-01
      7.64705956e-01 7.72549093e-01 7.45098054e-01 7.56862819e-01
      7.56862819e-01 7.45098054e-01 7.72549093e-01 7.64705956e-01
      4.23529446e-01 3.13725509e-02 0. 0. 0. 0. 0. 0. 0. 0.
      5.09803966e-02 4.43137288e-01 7.64705956e-01 7.84313798e-01
      7.84313798e-01 7.84313798e-01 7.84313798e-01 7.84313798e-01
      7.84313798e-01 7.72549093e-01 5.25490224e-01 1.33333340e-01
      7.84313772e-03 0. 0. 0. 0. 0. 0. 1.17647070e-02 2.58823544e-01
      6.50980413e-01 7.76470661e-01 7.84313798e-01 7.84313798e-01
      7.84313798e-01 7.84313798e-01 7.84313798e-01 7.84313798e-01
      7.84313798e-01 7.37254918e-01 3.64705890e-01 3.52941193e-02 0. 0.
      0. 0. 0. 0. 1.96078438e-02 3.64705890e-01 7.56862819e-01
      7.76470661e-01 7.45098054e-01 7.37254918e-01 7.56862819e-01
      7.56862819e-01 7.45098054e-01 7.72549093e-01 7.84313798e-01
      7.76470661e-01 6.00000024e-01 1.88235313e-01 7.84313772e-03 0.
      7.84313772e-03 1.01960793e-01 0. 0. 1.96078438e-02 3.64705890e-01
      7.56862819e-01 6.98039234e-01 3.60784322e-01 2.74509817e-01
      4.98039246e-01 4.98039246e-01 3.21568638e-01 4.90196109e-01
      6.47058845e-01 7.56862819e-01 6.00000024e-01 1.88235313e-01
      7.84313772e-03 0. 7.84313772e-03 1.01960793e-01 0. 3.92156886e-03
      9.80392247e-02 4.70588267e-01 7.64705956e-01 6.58823550e-01
      1.72549024e-01 1.88235313e-01 5.88235319e-01 5.88235319e-01
      1.96078449e-01 1.60784319e-01 5.68627477e-01 7.37254918e-01
      3.84313762e-01 3.52941193e-02 0. 0. 0. 0. 0. 7.84313772e-03
      2.50980407e-01 6.86274529e-01 7.76470661e-01 6.31372571e-01
      1.68627456e-01 2.66666681e-01 6.98039234e-01 6.00000024e-01
      1.88235313e-01 1.72549024e-01 6.58823550e-01 7.56862819e-01
      3.64705890e-01 1.96078438e-02 0. 0. 0. 0. 0. 1.17647070e-02
      2.66666681e-01 7.05882370e-01 7.29411781e-01 3.88235331e-01
      7.84313753e-02 2.90196091e-01 6.86274529e-01 4.03921604e-01
      5.09803966e-02 1.56862751e-01 6.27451003e-01 6.66666687e-01
      2.78431386e-01 1.56862754e-02 0. 0. 0. 2.35294141e-02 0.
      7.84313772e-03 2.50980407e-01 6.86274529e-01 7.05882370e-01
      2.66666681e-01 1.29411772e-01 5.33333361e-01 7.49019623e-01
      6.00000024e-01 1.88235313e-01 7.45098069e-02 4.07843173e-01
      6.23529434e-01 3.05882365e-01 5.49019650e-02 1.17647070e-02 0.
      1.96078438e-02 2.74509817e-01 0. 7.84313772e-03 1.72549024e-01
      5.76470613e-01 6.74509823e-01 2.58823544e-01 2.03921586e-01
      6.66666687e-01 7.84313798e-01 7.29411781e-01 3.96078467e-01
      2.03921586e-01 5.41176498e-01 7.49019623e-01 6.27451003e-01
      3.33333343e-01 6.66666701e-02 0. 3.13725509e-02 4.03921604e-01 0.
      1.96078438e-02 2.74509817e-01 6.78431392e-01 6.00000024e-01
      3.84313762e-01 5.33333361e-01 7.45098054e-01 7.84313798e-01
      7.80392230e-01 7.21568644e-01 6.35294139e-01 7.45098054e-01
      7.84313798e-01 7.09803939e-01 2.90196091e-01 1.96078438e-02 0.
      1.96078438e-02 2.74509817e-01 0. 1.17647067e-01 5.33333361e-01
      7.56862819e-01 7.56862819e-01 7.45098054e-01 7.72549093e-01
      7.84313798e-01 7.64705956e-01 7.64705956e-01 7.84313798e-01
      7.84313798e-01 7.84313798e-01 7.84313798e-01 7.29411781e-01
      3.88235331e-01 5.88235334e-02 0. 0. 2.35294141e-02 7.84313753e-02
      3.05882365e-01 6.98039234e-01 7.84313798e-01 7.64705956e-01
      7.68627524e-01 7.80392230e-01 6.94117665e-01 4.47058856e-01
      5.25490224e-01 7.56862819e-01 7.84313798e-01 7.84313798e-01
      7.84313798e-01 7.80392230e-01 6.70588255e-01 2.98039228e-01
      3.92156877e-02 0. 0. 2.39215702e-01 5.88235319e-01 7.68627524e-01
      6.62745118e-01 4.66666698e-01 6.23529434e-01 7.68627524e-01
      5.33333361e-01 1.09803930e-01 2.07843155e-01 6.11764729e-01
      7.68627524e-01 7.45098054e-01 7.37254918e-01 7.60784388e-01
      7.76470661e-01 5.88235319e-01 1.17647067e-01 0. 0. 2.54901975e-01
      6.19607866e-01 7.64705956e-01 4.62745130e-01 3.64705890e-01
      6.90196097e-01 7.72549093e-01 5.21568656e-01 9.80392247e-02
      3.13725501e-01 6.86274529e-01 6.66666687e-01 3.33333343e-01
      2.86274523e-01 5.56862772e-01 7.64705956e-01 5.88235319e-01
      1.17647067e-01 0. 0. 3.88235331e-01 6.58823550e-01 7.64705956e-01
      4.70588267e-01 4.70588267e-01 7.64705956e-01 7.37254918e-01
      4.35294151e-01 1.09803930e-01 4.23529446e-01 7.64705956e-01
      6.70588255e-01 3.33333343e-01 2.86274523e-01 5.33333361e-01
      7.09803939e-01 4.86274540e-01 1.76470593e-01 1.96078438e-02 0.
      5.21568656e-01 7.01960802e-01 7.76470661e-01 6.78431392e-01
      6.78431392e-01 7.76470661e-01 7.41176486e-01 5.96078455e-01
      4.07843173e-01 5.25490224e-01 7.68627524e-01 7.72549093e-01
      7.29411781e-01 5.17647088e-01 4.03921604e-01 6.54901981e-01
      6.23529434e-01 2.15686291e-01 1.96078438e-02 0.</_>
    <_>
      0. 0. 0. 0. 0. 7.84313753e-02 4.47058856e-01 7.37254918e-01
      7.80392230e-01 7.33333349e-01 6.23529434e-01 3.84313762e-01
      4.27451015e-01 6.94117665e-01 7.80392230e-01 7.84313798e-01
      7.84313798e-01 7.64705956e-01 4.23529446e-01 3.13725509e-02 0. 0.
      0. 0. 0. 7.84313753e-02 4.00000036e-01 5.92156887e-01
      6.15686297e-01 3.88235331e-01 2.19607860e-01 9.41176564e-02
      1.29411772e-01 4.74509835e-01 7.64705956e-01 7.84313798e-01
      7.84313798e-01 7.64705956e-01 4.23529446e-01 3.13725509e-02 0. 0.
      0. 0. 0. 7.84313772e-03 3.92156877e-02 1.09803930e-01
      1.33333340e-01 3.13725509e-02 0. 0. 1.17647070e-02 2.50980407e-01
      5.45098066e-01 7.01960802e-01 7.80392230e-01 7.72549093e-01
      5.25490224e-01 1.41176477e-01 0. 0. 0. 0. 0. 0. 0. 0. 0. 0. 0. 0.
      0. 2.35294141e-02 9.80392247e-02 4.11764741e-01 7.25490212e-01
      7.84313798e-01 7.33333349e-01 3.60784322e-01 0. 0. 0. 0. 0. 0. 0.
      0. 0. 0. 0. 0. 0. 0. 3.92156886e-03 1.52941182e-01 6.27451003e-01
      7.84313798e-01 7.64705956e-01 5.09803951e-01 0. 0. 0. 0. 0. 0. 0.
      0. 0. 0. 0. 0. 0. 0. 3.92156886e-03 1.52941182e-01 6.27451003e-01
      7.84313798e-01 7.72549093e-01 6.35294139e-01 0. 0. 0. 0. 0. 0. 0.
      0. 0. 0. 0. 0. 1.56862754e-02 5.09803966e-02 1.84313729e-01
      4.74509835e-01 7.29411781e-01 7.76470661e-01 6.50980413e-01
      2.98039228e-01 0. 0. 0. 0. 0. 0. 0. 0. 0. 0. 7.84313772e-03
      4.31372561e-02 2.15686291e-01 4.98039246e-01 6.50980413e-01
      7.64705956e-01 7.80392230e-01 6.90196097e-01 3.33333343e-01
      4.31372561e-02 0. 0. 0. 0. 0. 0. 0. 7.84313772e-03 1.13725498e-01
      2.15686291e-01 1.64705887e-01 3.29411775e-01 5.88235319e-01
      7.60784388e-01 7.84313798e-01 7.84313798e-01 7.25490212e-01
      4.11764741e-01 7.45098069e-02 0. 0. 0. 0. 0. 0. 0. 0.
      1.96078438e-02 3.41176480e-01 6.86274529e-01 6.11764729e-01
      6.23529434e-01 7.52941251e-01 7.84313798e-01 7.64705956e-01
      6.54901981e-01 4.74509835e-01 1.21568635e-01 3.92156886e-03 0. 0.
      0. 0. 0. 0. 0. 0. 3.52941193e-02 3.84313762e-01 7.56862819e-01
      7.84313798e-01 7.84313798e-01 7.84313798e-01 7.84313798e-01
      7.64705956e-01 6.54901981e-01 5.13725519e-01 2.35294133e-01
      4.70588282e-02 0. 0. 0. 0. 0. 0. 0. 3.92156886e-03 1.05882362e-01
      3.84313762e-01 6.15686297e-01 6.39215708e-01 7.25490212e-01
      7.45098054e-01 7.37254918e-01 7.60784388e-01 7.84313798e-01
      7.72549093e-01 6.70588255e-01 4.11764741e-01 1.29411772e-01 0. 0.
      0. 0. 0. 0. 0. 1.56862754e-02 5.09803966e-02 1.33333340e-01
      1.88235313e-01 3.76470625e-01 2.94117659e-01 2.62745112e-01
      5.09803951e-01 7.29411781e-01 7.72549093e-01 7.84313798e-01
      7.37254918e-01 3.84313762e-01 0. 0. 0. 0. 0. 0. 0. 0. 0. 0.
      7.84313772e-03 2.74509825e-02 7.84313772e-03 7.84313772e-03
      1.33333340e-01 3.25490206e-01 6.70588255e-01 7.84313798e-01
      7.76470661e-01 6.58823550e-01 0. 0. 0. 0. 0. 0. 0. 0. 0. 0. 0. 0.
      0. 0. 0. 1.29411772e-01 6.19607866e-01 7.84313798e-01
      7.84313798e-01 7.84313798e-01 0. 0. 0. 0. 0. 0. 0. 0. 0. 0. 0. 0.
      0. 0. 0. 1.29411772e-01 6.19607866e-01 7.84313798e-01
      7.84313798e-01 7.84313798e-01 0. 0. 0. 0. 0. 0. 0. 0. 0. 0. 0. 0.
      0. 0. 2.35294141e-02 2.50980407e-01 6.66666687e-01 7.84313798e-01
      7.84313798e-01 7.84313798e-01 0. 0. 0. 0. 0. 0. 0. 0. 0. 0. 0. 0.
      0. 7.84313772e-03 1.60784319e-01 5.56862772e-01 7.68627524e-01
      7.76470661e-01 6.70588255e-01 5.49019635e-01 0. 0. 0. 0. 0. 0. 0.
      0. 0. 0. 0. 0. 0. 3.13725509e-02 2.07843155e-01 5.96078455e-01
      7.76470661e-01 7.72549093e-01 5.29411793e-01 1.64705887e-01 0. 0.
      0. 0. 0. 0. 4.31372561e-02 1.60784319e-01 1.13725498e-01
      9.41176564e-02 6.27451017e-02 4.31372561e-02 1.72549024e-01
      3.52941185e-01 5.49019635e-01 7.01960802e-01 7.80392230e-01
      7.68627524e-01 5.05882382e-01 1.17647067e-01</_>
    <_>
      6.66666701e-02 1.96078438e-02 0. 0. 0. 0. 7.84313772e-03
      2.31372565e-01 6.19607866e-01 6.98039234e-01 7.52941251e-01
      7.84313798e-01 7.84313798e-01 7.84313798e-01 7.84313798e-01
      7.84313798e-01 7.84313798e-01 7.84313798e-01 7.84313798e-01
      7.84313798e-01 3.64705890e-01 1.13725498e-01 0. 0. 0. 0.
      3.92156886e-03 8.23529437e-02 2.19607860e-01 2.74509817e-01
      4.39215720e-01 5.37254930e-01 5.41176498e-01 5.45098066e-01
      6.50980413e-01 7.64705956e-01 7.84313798e-01 7.84313798e-01
      7.84313798e-01 7.84313798e-01 5.45098066e-01 2.03921586e-01
      4.70588282e-02 2.74509825e-02 0. 0. 0. 0. 0. 3.92156886e-03
      3.13725509e-02 4.70588282e-02 5.09803966e-02 5.88235334e-02
      2.31372565e-01 6.11764729e-01 7.76470661e-01 7.84313798e-01
      7.84313798e-01 7.84313798e-01 7.05882370e-01 5.41176498e-01
      3.25490206e-01 1.56862751e-01 1.17647070e-02 0. 0. 0. 0. 0. 0. 0.
      0. 1.96078438e-02 2.94117659e-01 6.74509823e-01 7.80392230e-01
      7.84313798e-01 7.84313798e-01 7.84313798e-01 7.84313798e-01
      6.39215708e-01 1.92156881e-01 3.13725509e-02 0. 0. 0. 0. 0. 0. 0.
      0. 0. 7.84313772e-03 1.84313729e-01 5.96078455e-01 7.76470661e-01
      7.84313798e-01 7.84313798e-01 7.84313798e-01 7.84313798e-01
      7.25490212e-01 3.96078467e-01 5.49019650e-02 0. 0. 0. 0. 0. 0. 0.
      0. 0. 7.84313772e-03 1.84313729e-01 5.96078455e-01 7.76470661e-01
      7.84313798e-01 7.84313798e-01 7.84313798e-01 7.84313798e-01
      7.76470661e-01 5.33333361e-01 9.80392247e-02 0. 0. 0. 0. 0.
      4.70588282e-02 1.45098045e-01 9.01960805e-02 5.09803966e-02
      7.45098069e-02 4.23529446e-01 7.49019623e-01 7.84313798e-01
      7.84313798e-01 7.84313798e-01 7.84313798e-01 7.84313798e-01
      7.80392230e-01 6.86274529e-01 3.13725501e-01 1.96078438e-02 0.
      3.92156886e-03 8.23529437e-02 2.31372565e-01 4.23529446e-01
      6.31372571e-01 5.80392182e-01 5.41176498e-01 5.49019635e-01
      6.70588255e-01 7.76470661e-01 7.84313798e-01 7.84313798e-01
      7.84313798e-01 7.84313798e-01 7.84313798e-01 7.41176486e-01
      5.88235319e-01 2.94117659e-01 1.96078438e-02 0. 7.84313772e-03
      1.72549024e-01 5.56862772e-01 7.52941251e-01 7.84313798e-01
      7.84313798e-01 7.84313798e-01 7.84313798e-01 7.84313798e-01
      7.84313798e-01 7.84313798e-01 7.84313798e-01 7.84313798e-01
      7.84313798e-01 7.84313798e-01 7.37254918e-01 4.35294151e-01
      7.84313753e-02 0. 0. 0. 3.52941193e-02 3.84313762e-01
      7.56862819e-01 7.84313798e-01 7.84313798e-01 7.84313798e-01
      7.84313798e-01 7.84313798e-01 7.84313798e-01 7.84313798e-01
      7.84313798e-01 7.76470661e-01 6.58823550e-01 7.84313798e-01
      7.76470661e-01 5.96078455e-01 1.84313729e-01 7.84313772e-03 0. 0.
      1.17647070e-02 2.58823544e-01 6.50980413e-01 7.76470661e-01
      7.84313798e-01 7.84313798e-01 7.84313798e-01 7.84313798e-01
      7.84313798e-01 7.84313798e-01 7.84313798e-01 7.64705956e-01
      5.33333361e-01 7.84313798e-01 7.72549093e-01 6.47058845e-01
      2.86274523e-01 1.96078438e-02 0. 0. 0. 4.70588282e-02
      3.96078467e-01 6.19607866e-01 7.05882370e-01 7.76470661e-01
      7.84313798e-01 7.84313798e-01 7.84313798e-01 7.84313798e-01
      7.84313798e-01 7.84313798e-01 7.60784388e-01 7.84313798e-01
      7.17647076e-01 3.88235331e-01 7.05882385e-02 0. 0. 0. 0.
      7.84313772e-03 1.13725498e-01 1.41176477e-01 2.66666681e-01
      4.98039246e-01 6.31372571e-01 7.33333349e-01 7.68627524e-01
      7.84313798e-01 7.84313798e-01 7.84313798e-01 7.84313798e-01
      7.84313798e-01 7.64705956e-01 4.94117677e-01 7.45098069e-02 0. 0.
      0. 0. 0. 0. 0. 1.17647070e-02 4.70588282e-02 1.41176477e-01
      2.90196091e-01 6.03921592e-01 7.76470661e-01 7.84313798e-01
      7.84313798e-01 7.84313798e-01 7.84313798e-01 7.68627524e-01
      5.56862772e-01 1.60784319e-01 7.84313772e-03 0. 0. 0. 0. 0. 0. 0.
      0. 0. 7.84313753e-02 5.21568656e-01 7.76470661e-01 7.84313798e-01
      7.84313798e-01 7.84313798e-01 7.68627524e-01 6.39215708e-01
      3.01960796e-01 1.09803930e-01 7.84313772e-03 0. 0. 0. 0. 0. 0. 0.
      0. 0. 5.49019650e-02 3.96078467e-01 7.25490212e-01 7.84313798e-01
      7.84313798e-01 7.84313798e-01 5.76470613e-01 2.98039228e-01
      3.92156877e-02 0. 0. 0. 0. 0. 0. 0. 0. 0. 0. 0. 1.17647070e-02
      1.76470593e-01 6.39215708e-01 7.84313798e-01 7.84313798e-01
      7.84313798e-01 1.64705887e-01 5.09803966e-02 0. 0. 0. 0. 0. 0. 0.
      0. 0. 0. 0. 7.84313772e-03 1.60784319e-01 4.74509835e-01
      7.29411781e-01 7.84313798e-01 7.84313798e-01 7.84313798e-01 0. 0.
      0. 0. 2.74509825e-02 7.84313753e-02 2.03921586e-01 2.47058839e-01
      2.39215702e-01 1.41176477e-01 5.49019650e-02 5.09803966e-02
      1.09803930e-01 1.60784319e-01 4.31372583e-01 7.49019623e-01
      7.84313798e-01 7.84313798e-01 7.84313798e-01 7.84313798e-01 0. 0.
      3.92156886e-03 1.01960793e-01 3.72549027e-01 5.60784340e-01
      6.94117665e-01 7.37254918e-01 7.29411781e-01 6.31372571e-01
      5.45098066e-01 5.41176498e-01 6.00000024e-01 6.35294139e-01
      6.78431392e-01 7.76470661e-01 7.84313798e-01 7.84313798e-01
      7.84313798e-01 7.84313798e-01</_>
    <_>
      0. 0. 0. 0. 0. 0. 0. 3.13725509e-02 9.01960805e-02 9.80392247e-02
      1.60784319e-01 4.07843173e-01 4.82352972e-01 3.05882365e-01
      5.88235334e-02 3.92156886e-03 0. 0. 0. 0. 0. 0. 0. 0.
      2.74509825e-02 7.84313753e-02 2.07843155e-01 3.45098048e-01
      5.09803951e-01 5.41176498e-01 5.72549045e-01 6.94117665e-01
      7.29411781e-01 6.27451003e-01 2.78431386e-01 2.74509825e-02 0. 0.
      0. 0. 0. 0. 0. 3.92156877e-02 3.09803933e-01 5.60784340e-01
      6.94117665e-01 7.45098054e-01 6.74509823e-01 6.58823550e-01
      7.64705956e-01 7.84313798e-01 7.84313798e-01 7.76470661e-01
      6.03921592e-01 2.11764723e-01 1.56862754e-02 0. 0. 0. 0. 0.
      1.17647070e-02 2.58823544e-01 6.50980413e-01 7.76470661e-01
      7.84313798e-01 7.64705956e-01 4.54901993e-01 2.58823544e-01
      6.11764729e-01 7.76470661e-01 7.68627524e-01 7.64705956e-01
      7.56862819e-01 5.64705908e-01 2.31372565e-01 3.13725509e-02 0. 0.
      0. 1.17647070e-02 1.21568635e-01 4.74509835e-01 7.17647076e-01
      6.47058845e-01 7.33333349e-01 6.86274529e-01 3.33333343e-01
      3.13725501e-01 6.74509823e-01 7.33333349e-01 5.17647088e-01
      5.09803951e-01 7.45098054e-01 6.86274529e-01 2.78431386e-01
      3.13725509e-02 0. 0. 0. 1.17647067e-01 5.17647088e-01
      7.17647076e-01 4.74509835e-01 2.47058839e-01 6.19607866e-01
      5.33333361e-01 1.09803930e-01 1.88235313e-01 5.96078455e-01
      6.90196097e-01 3.29411775e-01 1.72549024e-01 5.25490224e-01
      6.82352960e-01 3.05882365e-01 3.92156877e-02 0. 0. 0.
      1.68627456e-01 6.54901981e-01 7.33333349e-01 3.41176480e-01
      1.45098045e-01 6.07843161e-01 5.21568656e-01 7.84313753e-02
      7.84313753e-02 5.21568656e-01 7.25490212e-01 4.23529446e-01
      7.84313753e-02 3.13725501e-01 6.78431392e-01 6.35294139e-01
      2.43137270e-01 2.35294141e-02 0. 0. 1.64705887e-01 6.27451003e-01
      5.05882382e-01 1.33333340e-01 1.33333340e-01 6.07843161e-01
      5.21568656e-01 7.84313753e-02 7.84313753e-02 5.21568656e-01
      7.17647076e-01 3.96078467e-01 5.49019650e-02 9.80392247e-02
      5.33333361e-01 7.56862819e-01 4.94117677e-01 7.45098069e-02 0.
      7.84313753e-02 3.01960796e-01 5.09803951e-01 1.84313729e-01
      1.56862754e-02 1.52941182e-01 6.19607866e-01 5.21568656e-01
      7.84313753e-02 7.84313753e-02 5.21568656e-01 6.27451003e-01
      1.92156881e-01 3.13725509e-02 7.45098069e-02 4.94117677e-01
      7.56862819e-01 5.33333361e-01 9.80392247e-02 0. 2.70588249e-01
      5.88235319e-01 5.09803951e-01 7.84313753e-02 7.45098069e-02
      4.11764741e-01 7.17647076e-01 5.21568656e-01 7.84313753e-02
      7.84313753e-02 5.21568656e-01 7.21568644e-01 5.72549045e-01
      3.96078467e-01 1.68627456e-01 2.70588249e-01 6.62745118e-01
      6.94117665e-01 4.27451015e-01 2.54901975e-01 6.19607866e-01
      7.21568644e-01 5.21568656e-01 1.17647067e-01 3.33333343e-01
      6.90196097e-01 7.60784388e-01 4.94117677e-01 7.45098069e-02
      5.49019650e-02 3.88235331e-01 6.98039234e-01 7.76470661e-01
      7.52941251e-01 5.76470613e-01 3.13725501e-01 6.23529434e-01
      7.84313798e-01 7.60784388e-01 7.13725507e-01 7.84313798e-01
      7.76470661e-01 6.07843161e-01 4.43137288e-01 6.58823550e-01
      7.76470661e-01 7.17647076e-01 4.54901993e-01 2.62745112e-01
      1.45098045e-01 1.17647067e-01 3.56862754e-01 7.05882370e-01
      7.76470661e-01 6.43137276e-01 4.54901993e-01 6.74509823e-01
      7.84313798e-01 7.72549093e-01 6.35294139e-01 7.68627524e-01
      7.56862819e-01 7.60784388e-01 7.64705956e-01 7.84313798e-01
      7.84313798e-01 7.72549093e-01 7.45098054e-01 7.29411781e-01
      6.31372571e-01 5.45098066e-01 5.92156887e-01 7.45098054e-01
      7.76470661e-01 6.94117665e-01 6.98039234e-01 7.72549093e-01
      7.84313798e-01 7.84313798e-01 7.60784388e-01 4.43137288e-01
      3.68627459e-01 4.98039246e-01 6.50980413e-01 7.49019623e-01
      6.23529434e-01 5.45098066e-01 6.00000024e-01 6.23529434e-01
      5.45098066e-01 5.41176498e-01 5.80392182e-01 7.05882370e-01
      7.56862819e-01 7.84313798e-01 7.76470661e-01 7.45098054e-01
      7.37254918e-01 7.56862819e-01 7.84313798e-01 3.13725509e-02
      1.96078438e-02 5.88235334e-02 3.88235331e-01 6.82352960e-01
      2.98039228e-01 5.88235334e-02 1.09803930e-01 1.33333340e-01
      5.49019650e-02 5.09803966e-02 9.01960805e-02 2.43137270e-01
      5.17647088e-01 7.64705956e-01 6.98039234e-01 3.60784322e-01
      2.58823544e-01 4.74509835e-01 7.41176486e-01 0. 0. 1.96078438e-02
      3.64705890e-01 6.82352960e-01 2.90196091e-01 1.96078438e-02 0. 0.
      0. 0. 7.84313772e-03 1.88235313e-01 6.00000024e-01 7.68627524e-01
      6.31372571e-01 1.56862751e-01 7.84313772e-03 1.33333340e-01
      4.86274540e-01 2.47058839e-01 2.47058839e-01 2.58823544e-01
      4.94117677e-01 7.41176486e-01 5.72549045e-01 2.70588249e-01
      8.23529437e-02 5.09803966e-02 5.09803966e-02 5.09803966e-02
      9.80392247e-02 3.96078467e-01 7.29411781e-01 7.56862819e-01
      5.09803951e-01 1.09803930e-01 1.56862754e-02 5.49019650e-02
      1.76470593e-01 5.52941203e-01 6.43137276e-01 6.90196097e-01
      7.33333349e-01 7.80392230e-01 7.76470661e-01 7.01960802e-01
      5.52941203e-01 4.98039246e-01 5.17647088e-01 5.37254930e-01
      5.80392182e-01 7.21568644e-01 7.80392230e-01 7.80392230e-01
      6.70588255e-01 3.52941185e-01 3.45098048e-01 5.09803951e-01
      5.41176498e-01 1.13725498e-01 2.03921586e-01 2.50980407e-01
      3.80392194e-01 5.29411793e-01 5.41176498e-01 5.37254930e-01
      4.39215720e-01 2.86274523e-01 4.03921604e-01 5.33333361e-01
      5.80392182e-01 6.39215708e-01 5.64705908e-01 6.43137276e-01
      6.90196097e-01 5.45098066e-01 5.72549045e-01 7.09803939e-01
      7.37254918e-01 0. 0. 0. 2.35294141e-02 4.70588282e-02
      5.09803966e-02 4.70588282e-02 3.13725509e-02 7.84313772e-03
      2.74509825e-02 4.70588282e-02 9.01960805e-02 1.49019614e-01
      7.45098069e-02 1.52941182e-01 2.07843155e-01 9.41176564e-02
      1.13725498e-01 2.27450997e-01 2.47058839e-01</_>
    <_>
      0. 0. 0. 1.56862754e-02 2.50980407e-01 6.43137276e-01
      7.80392230e-01 7.84313798e-01 7.84313798e-01 7.84313798e-01
      7.84313798e-01 7.84313798e-01 7.84313798e-01 7.84313798e-01
      7.56862819e-01 5.25490224e-01 1.84313729e-01 6.66666701e-02
      1.17647070e-02 0. 0. 0. 0. 7.84313772e-03 1.64705887e-01
      5.80392182e-01 7.76470661e-01 7.84313798e-01 7.84313798e-01
      7.84313798e-01 7.84313798e-01 7.84313798e-01 7.84313798e-01
      7.84313798e-01 7.80392230e-01 7.21568644e-01 5.76470613e-01
      3.56862754e-01 5.49019650e-02 0. 0. 0. 0. 0. 7.84313753e-02
      5.21568656e-01 7.64705956e-01 7.37254918e-01 6.43137276e-01
      5.64705908e-01 6.70588255e-01 7.45098054e-01 7.76470661e-01
      7.84313798e-01 7.84313798e-01 7.84313798e-01 7.76470661e-01
      5.96078455e-01 2.07843155e-01 3.13725509e-02 0. 0. 0. 0.
      5.49019650e-02 3.56862754e-01 4.70588267e-01 2.86274523e-01
      1.52941182e-01 7.45098069e-02 1.80392161e-01 3.05882365e-01
      5.60784340e-01 7.37254918e-01 7.84313798e-01 7.84313798e-01
      7.84313798e-01 7.60784388e-01 6.07843161e-01 2.47058839e-01 0. 0.
      0. 0. 3.92156886e-03 3.13725509e-02 3.92156877e-02 7.84313772e-03
      0. 0. 0. 1.17647070e-02 1.17647067e-01 4.54901993e-01
      7.45098054e-01 7.84313798e-01 7.84313798e-01 7.72549093e-01
      5.25490224e-01 1.41176477e-01 0. 0. 0. 0. 0. 0. 0. 0. 0. 0. 0. 0.
      7.84313772e-03 1.52941182e-01 5.45098066e-01 7.72549093e-01
      7.84313798e-01 7.64705956e-01 4.23529446e-01 3.13725509e-02 0. 0.
      0. 0. 0. 0. 0. 0. 0. 0. 0. 1.17647070e-02 5.49019650e-02
      2.86274523e-01 6.50980413e-01 7.76470661e-01 7.84313798e-01
      7.64705956e-01 4.23529446e-01 3.13725509e-02 0. 0. 0. 0. 0. 0.
      3.92156886e-03 7.84313753e-02 1.29411772e-01 5.49019650e-02
      5.09803966e-02 1.52941182e-01 4.66666698e-01 6.50980413e-01
      7.76470661e-01 7.84313798e-01 7.80392230e-01 6.86274529e-01
      3.13725501e-01 1.96078438e-02 0. 0. 0. 0. 0. 0. 5.88235334e-02
      3.64705890e-01 5.96078455e-01 5.45098066e-01 5.41176498e-01
      5.92156887e-01 7.45098054e-01 7.84313798e-01 7.84313798e-01
      7.76470661e-01 6.98039234e-01 4.03921604e-01 7.45098069e-02 0. 0.
      0. 0. 0. 0. 3.92156877e-02 2.98039228e-01 6.70588255e-01
      7.80392230e-01 7.84313798e-01 7.84313798e-01 7.84313798e-01
      7.84313798e-01 7.84313798e-01 7.84313798e-01 7.05882370e-01
      3.56862754e-01 9.80392247e-02 1.17647070e-02 0. 0. 0. 0. 0. 0.
      7.84313753e-02 4.39215720e-01 7.13725507e-01 7.80392230e-01
      7.84313798e-01 7.84313798e-01 7.84313798e-01 7.84313798e-01
      7.84313798e-01 7.84313798e-01 7.45098054e-01 5.88235319e-01
      4.35294151e-01 1.80392161e-01 3.13725509e-02 0. 0. 0. 0. 0.
      7.84313772e-03 8.62745121e-02 3.80392194e-01 6.78431392e-01
      6.31372571e-01 5.45098066e-01 5.80392182e-01 7.21568644e-01
      7.80392230e-01 7.84313798e-01 7.84313798e-01 7.84313798e-01
      7.64705956e-01 6.31372571e-01 2.94117659e-01 0. 0. 0. 0. 0. 0.
      3.92156886e-03 8.23529437e-02 2.11764723e-01 1.41176477e-01
      5.49019650e-02 9.41176564e-02 3.17647070e-01 6.23529434e-01
      7.76470661e-01 7.84313798e-01 7.84313798e-01 7.84313798e-01
      7.76470661e-01 6.58823550e-01 0. 0. 0. 0. 0. 0. 0. 0. 0. 0. 0. 0.
      2.74509825e-02 2.78431386e-01 6.50980413e-01 7.76470661e-01
      7.84313798e-01 7.84313798e-01 7.84313798e-01 7.84313798e-01 0. 0.
      0. 0. 0. 0. 0. 0. 0. 0. 0. 0. 0. 4.31372561e-02 3.56862754e-01
      7.05882370e-01 7.80392230e-01 7.84313798e-01 7.84313798e-01
      7.84313798e-01 0. 0. 0. 0. 0. 0. 0. 0. 0. 0. 0. 0. 0.
      2.35294141e-02 3.37254912e-01 7.01960802e-01 7.80392230e-01
      7.84313798e-01 7.84313798e-01 7.84313798e-01 0. 0. 0. 0. 0. 0. 0.
      0. 0. 0. 0. 3.92156886e-03 8.23529437e-02 2.39215702e-01
      5.33333361e-01 7.72549093e-01 7.84313798e-01 7.84313798e-01
      7.52941251e-01 6.35294139e-01 0. 0. 0. 7.84313772e-03
      1.33333340e-01 2.07843155e-01 1.33333340e-01 2.07843155e-01
      1.52941182e-01 7.45098069e-02 1.80392161e-01 2.47058839e-01
      4.11764741e-01 6.86274529e-01 7.60784388e-01 7.84313798e-01
      7.84313798e-01 7.72549093e-01 5.29411793e-01 1.64705887e-01 0. 0.
      7.84313772e-03 1.33333340e-01 4.98039246e-01 6.90196097e-01
      6.23529434e-01 6.98039234e-01 6.43137276e-01 5.64705908e-01
      6.70588255e-01 7.33333349e-01 7.52941251e-01 7.80392230e-01
      7.84313798e-01 7.84313798e-01 7.80392230e-01 6.86274529e-01
      3.13725501e-01 1.96078438e-02 0. 3.92156886e-03 7.84313753e-02
      4.27451015e-01 7.41176486e-01 7.84313798e-01 7.84313798e-01
      7.84313798e-01 7.84313798e-01 7.84313798e-01 7.84313798e-01
      7.84313798e-01 7.84313798e-01 7.84313798e-01 7.84313798e-01
      7.52941251e-01 6.23529434e-01 4.03921604e-01 7.84313753e-02 0.</_>
    <_>
      0. 0. 0. 0. 0. 0. 0. 0. 0. 1.17647070e-02 1.29411772e-01
      4.00000036e-01 3.56862754e-01 1.37254909e-01 9.01960805e-02
      3.13725509e-02 1.96078438e-02 5.09803966e-02 1.17647070e-02 0.
      5.09803966e-02 3.92156877e-02 7.84313772e-03 0. 0. 0. 0. 0.
      3.13725509e-02 1.80392161e-01 4.66666698e-01 6.86274529e-01
      6.70588255e-01 5.60784340e-01 5.09803951e-01 3.45098048e-01
      3.05882365e-01 3.92156899e-01 2.66666681e-01 1.17647067e-01
      5.41176498e-01 4.23529446e-01 8.62745121e-02 0. 0. 0. 0.
      1.17647070e-02 2.54901975e-01 6.27451003e-01 7.64705956e-01
      7.84313798e-01 7.84313798e-01 7.84313798e-01 7.76470661e-01
      7.25490212e-01 7.37254918e-01 7.60784388e-01 7.13725507e-01
      3.84313762e-01 7.84313798e-01 6.27451003e-01 1.52941182e-01
      3.92156886e-03 0. 0. 3.92156886e-03 9.80392247e-02 4.70588267e-01
      7.60784388e-01 7.52941251e-01 7.45098054e-01 7.76470661e-01
      7.84313798e-01 7.29411781e-01 5.13725519e-01 6.78431392e-01
      7.84313798e-01 7.76470661e-01 6.58823550e-01 7.84313798e-01
      7.25490212e-01 3.96078467e-01 5.49019650e-02 0. 0. 7.84313772e-03
      2.50980407e-01 6.82352960e-01 7.05882370e-01 4.11764741e-01
      3.17647070e-01 5.68627477e-01 6.47058845e-01 4.98039246e-01
      3.33333343e-01 6.35294139e-01 7.84313798e-01 7.84313798e-01
      7.84313798e-01 7.84313798e-01 7.76470661e-01 5.21568656e-01
      7.84313753e-02 0. 3.92156877e-02 2.00000018e-01 4.27451015e-01
      7.09803939e-01 4.70588267e-01 9.80392247e-02 2.35294141e-02
      2.74509817e-01 4.54901993e-01 2.03921586e-01 3.92156899e-01
      7.13725507e-01 7.01960802e-01 5.72549045e-01 6.39215708e-01
      7.84313798e-01 7.76470661e-01 5.96078455e-01 1.84313729e-01
      7.84313772e-03 1.17647067e-01 5.80392182e-01 7.49019623e-01
      7.29411781e-01 3.41176480e-01 1.96078438e-02 5.88235334e-02
      3.72549027e-01 4.70588267e-01 1.56862751e-01 2.54901975e-01
      6.58823550e-01 5.37254930e-01 1.37254909e-01 2.74509817e-01
      7.84313798e-01 7.33333349e-01 5.49019635e-01 2.66666681e-01
      1.96078438e-02 1.29411772e-01 6.19607866e-01 7.72549093e-01
      5.25490224e-01 1.33333340e-01 7.84313772e-03 1.49019614e-01
      6.00000024e-01 6.39215708e-01 2.82352954e-01 2.62745112e-01
      6.58823550e-01 5.21568656e-01 1.05882362e-01 3.76470625e-01
      7.84313798e-01 6.39215708e-01 1.96078449e-01 1.45098045e-01
      2.39215702e-01 3.33333343e-01 6.70588255e-01 7.52941251e-01
      4.82352972e-01 1.09803930e-01 4.31372561e-02 2.47058839e-01
      5.45098066e-01 6.19607866e-01 3.33333343e-01 5.09803951e-01
      7.56862819e-01 5.96078455e-01 2.35294133e-01 4.31372583e-01
      7.84313798e-01 7.25490212e-01 4.27451015e-01 3.33333343e-01
      6.27451003e-01 7.37254918e-01 7.68627524e-01 6.15686297e-01
      2.94117659e-01 1.41176477e-01 2.62745112e-01 6.27451003e-01
      7.33333349e-01 4.39215720e-01 1.05882362e-01 3.64705890e-01
      6.11764729e-01 7.29411781e-01 6.58823550e-01 6.70588255e-01
      7.84313798e-01 7.80392230e-01 7.01960802e-01 5.92156887e-01
      6.90196097e-01 7.80392230e-01 7.29411781e-01 4.90196109e-01
      2.03921586e-01 3.21568638e-01 6.62745118e-01 7.56862819e-01
      6.62745118e-01 3.09803933e-01 3.13725509e-02 1.45098045e-01
      5.25490224e-01 7.52941251e-01 7.84313798e-01 7.84313798e-01
      7.84313798e-01 7.84313798e-01 7.84313798e-01 7.84313798e-01
      7.84313798e-01 7.84313798e-01 6.78431392e-01 3.09803933e-01
      2.07843155e-01 5.29411793e-01 7.72549093e-01 6.78431392e-01
      3.09803933e-01 1.84313729e-01 2.70588249e-01 4.78431404e-01
      7.29411781e-01 7.84313798e-01 7.84313798e-01 7.84313798e-01
      7.84313798e-01 7.84313798e-01 7.84313798e-01 7.84313798e-01
      7.84313798e-01 7.84313798e-01 7.72549093e-01 6.82352960e-01
      6.50980413e-01 7.52941251e-01 7.84313798e-01 7.33333349e-01
      5.84313750e-01 6.31372571e-01 7.33333349e-01 7.68627524e-01
      7.84313798e-01 7.84313798e-01 7.84313798e-01 7.84313798e-01
      7.84313798e-01 7.84313798e-01 7.84313798e-01 7.84313798e-01
      7.84313798e-01 7.84313798e-01 7.84313798e-01 7.84313798e-01
      7.84313798e-01 7.84313798e-01 7.84313798e-01 7.84313798e-01
      7.68627524e-01 7.64705956e-01 7.76470661e-01 7.21568644e-01
      6.23529434e-01 7.21568644e-01 7.80392230e-01 7.84313798e-01
      7.84313798e-01 7.84313798e-01 7.84313798e-01 7.84313798e-01
      7.80392230e-01 7.52941251e-01 6.94117665e-01 5.76470613e-01
      6.31372571e-01 7.52941251e-01 7.45098054e-01 5.88235319e-01
      4.47058856e-01 4.11764741e-01 4.98039246e-01 3.13725501e-01
      1.41176477e-01 3.33333343e-01 6.43137276e-01 7.76470661e-01
      7.84313798e-01 7.84313798e-01 7.64705956e-01 6.50980413e-01
      5.17647088e-01 3.45098048e-01 2.07843155e-01 9.01960805e-02
      2.62745112e-01 6.27451003e-01 6.31372571e-01 1.96078449e-01
      3.52941193e-02 2.74509825e-02 4.31372561e-02 1.56862754e-02
      3.92156886e-03 1.25490203e-01 5.13725519e-01 7.68627524e-01
      7.84313798e-01 7.80392230e-01 6.58823550e-01 2.94117659e-01
      5.88235334e-02 1.56862754e-02 3.92156886e-03 9.41176564e-02
      4.50980425e-01 6.90196097e-01 3.84313762e-01 5.88235334e-02 0. 0.
      0. 7.84313772e-03 3.92156877e-02 8.23529437e-02 4.11764741e-01
      7.56862819e-01 7.84313798e-01 7.29411781e-01 4.58823562e-01
      1.41176477e-01 7.84313772e-03 0. 1.96078438e-02 2.74509817e-01
      6.90196097e-01 7.09803939e-01 2.98039228e-01 9.80392247e-02
      1.49019614e-01 7.45098069e-02 1.52941182e-01 2.86274523e-01
      4.78431404e-01 5.45098066e-01 6.50980413e-01 7.76470661e-01
      7.84313798e-01 6.39215708e-01 1.76470593e-01 3.13725509e-02
      4.70588282e-02 5.09803966e-02 1.56862751e-01 5.41176498e-01
      7.60784388e-01 7.60784388e-01 6.23529434e-01 5.80392182e-01
      6.35294139e-01 5.45098066e-01 5.96078455e-01 6.90196097e-01
      6.82352960e-01 5.72549045e-01 5.41176498e-01 5.41176498e-01
      7.84313798e-01 7.29411781e-01 4.70588267e-01 3.88235331e-01
      5.25490224e-01 5.41176498e-01 5.92156887e-01 7.45098054e-01
      7.84313798e-01 7.84313798e-01 7.52941251e-01 6.70588255e-01
      6.78431392e-01 4.50980425e-01 2.58823544e-01 2.47058839e-01
      2.03921586e-01 8.23529437e-02 5.09803966e-02 5.09803966e-02</_>
    <_>
      0. 0. 3.92156886e-03 4.70588282e-02 9.41176564e-02 9.80392247e-02
      9.80392247e-02 9.80392247e-02 9.80392247e-02 9.80392247e-02
      9.80392247e-02 9.80392247e-02 9.41176564e-02 5.09803966e-02
      3.92156886e-03 0. 0. 0. 0. 0. 0. 0. 1.17647070e-02 2.50980407e-01
      5.17647088e-01 5.41176498e-01 5.41176498e-01 5.41176498e-01
      5.41176498e-01 5.41176498e-01 5.41176498e-01 5.41176498e-01
      5.33333361e-01 3.92156899e-01 1.25490203e-01 7.84313772e-03 0. 0.
      0. 0. 0. 3.92156886e-03 9.80392247e-02 4.66666698e-01
      7.41176486e-01 7.68627524e-01 7.80392230e-01 7.05882370e-01
      6.78431392e-01 7.76470661e-01 7.84313798e-01 7.84313798e-01
      7.84313798e-01 7.45098054e-01 4.50980425e-01 9.41176564e-02
      3.92156886e-03 0. 0. 0. 0. 1.96078438e-02 2.74509817e-01
      6.70588255e-01 5.45098066e-01 6.15686297e-01 7.68627524e-01
      5.49019635e-01 3.56862754e-01 6.50980413e-01 7.76470661e-01
      7.84313798e-01 7.84313798e-01 7.84313798e-01 6.86274529e-01
      2.50980407e-01 7.84313772e-03 0. 7.84313772e-03 1.25490203e-01
      1.56862754e-02 1.45098045e-01 5.41176498e-01 7.29411781e-01
      4.35294151e-01 5.13725519e-01 7.56862819e-01 5.37254930e-01
      1.49019614e-01 4.23529446e-01 7.49019623e-01 7.33333349e-01
      5.80392182e-01 5.49019635e-01 6.15686297e-01 4.19607878e-01
      2.00000018e-01 3.92156877e-02 2.74509825e-02 3.76470625e-01
      1.76470593e-01 4.78431404e-01 7.37254918e-01 6.50980413e-01
      2.82352954e-01 2.62745112e-01 6.62745118e-01 6.86274529e-01
      3.25490206e-01 2.27450997e-01 6.11764729e-01 6.31372571e-01
      1.96078449e-01 1.01960793e-01 4.58823562e-01 7.33333349e-01
      6.27451003e-01 2.43137270e-01 7.45098069e-02 4.23529446e-01
      2.86274523e-01 6.23529434e-01 6.90196097e-01 3.33333343e-01
      6.66666701e-02 2.50980407e-01 6.66666687e-01 7.49019623e-01
      4.11764741e-01 2.35294133e-01 6.11764729e-01 7.17647076e-01
      4.07843173e-01 2.90196091e-01 6.07843161e-01 7.60784388e-01
      7.64705956e-01 5.01960814e-01 2.19607860e-01 4.07843173e-01
      4.54901993e-01 6.70588255e-01 5.49019635e-01 1.21568635e-01
      7.84313753e-02 4.94117677e-01 7.56862819e-01 5.96078455e-01
      1.88235313e-01 1.09803930e-01 5.33333361e-01 7.64705956e-01
      5.25490224e-01 1.92156881e-01 2.90196091e-01 6.03921592e-01
      7.68627524e-01 5.21568656e-01 1.01960793e-01 4.70588282e-02
      2.86274523e-01 6.23529434e-01 6.86274529e-01 3.17647070e-01
      1.21568635e-01 5.33333361e-01 7.64705956e-01 5.21568656e-01
      7.84313753e-02 7.84313753e-02 5.21568656e-01 7.64705956e-01
      5.21568656e-01 8.62745121e-02 1.60784319e-01 5.56862772e-01
      7.56862819e-01 5.41176498e-01 2.11764723e-01 2.39215702e-01
      2.86274523e-01 6.27451003e-01 7.72549093e-01 5.45098066e-01
      4.47058856e-01 6.94117665e-01 7.72549093e-01 5.21568656e-01
      7.84313753e-02 7.84313753e-02 5.21568656e-01 7.68627524e-01
      6.03921592e-01 2.98039228e-01 2.23529428e-01 3.17647070e-01
      6.66666687e-01 7.05882370e-01 6.54901981e-01 7.29411781e-01
      6.19607866e-01 7.33333349e-01 7.84313798e-01 7.64705956e-01
      7.64705956e-01 7.84313798e-01 7.25490212e-01 3.96078467e-01
      5.49019650e-02 7.45098069e-02 4.94117677e-01 7.64705956e-01
      7.68627524e-01 7.13725507e-01 3.41176480e-01 1.37254909e-01
      5.88235319e-01 7.76470661e-01 7.84313798e-01 7.84313798e-01
      7.84313798e-01 7.84313798e-01 7.84313798e-01 7.84313798e-01
      7.84313798e-01 7.84313798e-01 6.78431392e-01 2.74509817e-01
      3.13725509e-02 2.35294141e-02 2.50980407e-01 6.66666687e-01
      7.84313798e-01 7.56862819e-01 3.68627459e-01 9.01960805e-02
      3.45098048e-01 7.05882370e-01 7.84313798e-01 7.84313798e-01
      7.84313798e-01 7.84313798e-01 7.84313798e-01 7.84313798e-01
      7.84313798e-01 7.84313798e-01 7.68627524e-01 5.76470613e-01
      2.94117659e-01 2.27450997e-01 2.35294133e-01 6.31372571e-01
      7.84313798e-01 7.64705956e-01 5.25490224e-01 4.54901993e-01
      5.88235319e-01 7.45098054e-01 7.84313798e-01 7.84313798e-01
      7.68627524e-01 7.45098054e-01 7.52941251e-01 7.80392230e-01
      7.84313798e-01 7.76470661e-01 7.45098054e-01 7.21568644e-01
      7.13725507e-01 7.13725507e-01 6.47058845e-01 7.33333349e-01
      7.84313798e-01 7.84313798e-01 7.64705956e-01 7.68627524e-01
      7.84313798e-01 7.84313798e-01 7.84313798e-01 7.84313798e-01
      6.07843161e-01 3.64705890e-01 4.27451015e-01 7.29411781e-01
      7.60784388e-01 5.72549045e-01 3.09803933e-01 2.50980407e-01
      3.80392194e-01 5.29411793e-01 5.41176498e-01 5.80392182e-01
      7.21568644e-01 7.80392230e-01 7.84313798e-01 7.84313798e-01
      7.84313798e-01 7.84313798e-01 7.84313798e-01 7.84313798e-01
      3.64705890e-01 1.25490203e-01 2.66666681e-01 7.05882370e-01
      7.09803939e-01 2.90196091e-01 1.96078438e-02 0. 2.35294141e-02
      4.70588282e-02 5.09803966e-02 9.80392247e-02 3.96078467e-01
      7.29411781e-01 7.84313798e-01 7.45098054e-01 5.92156887e-01
      5.45098066e-01 6.50980413e-01 7.76470661e-01 8.23529437e-02
      5.88235334e-02 2.74509817e-01 7.05882370e-01 7.09803939e-01
      2.90196091e-01 1.96078438e-02 0. 0. 0. 0. 1.17647070e-02
      2.66666681e-01 7.05882370e-01 7.84313798e-01 6.66666687e-01
      2.03921586e-01 6.27451017e-02 2.82352954e-01 6.19607866e-01
      5.41176498e-01 4.82352972e-01 4.74509835e-01 7.29411781e-01
      7.60784388e-01 5.41176498e-01 1.49019614e-01 9.01960805e-02
      2.11764723e-01 1.41176477e-01 5.49019650e-02 4.70588282e-02
      1.96078449e-01 6.00000024e-01 7.76470661e-01 6.58823550e-01
      1.68627456e-01 0. 3.13725509e-02 1.49019614e-01 7.84313798e-01
      7.76470661e-01 7.60784388e-01 7.80392230e-01 7.84313798e-01
      7.45098054e-01 5.25490224e-01 4.35294151e-01 6.74509823e-01
      6.31372571e-01 5.45098066e-01 4.78431404e-01 3.21568638e-01
      5.17647088e-01 7.64705956e-01 6.66666687e-01 2.47058839e-01
      2.11764723e-01 2.47058839e-01 2.47058839e-01 5.88235319e-01
      5.92156887e-01 6.54901981e-01 7.56862819e-01 6.78431392e-01
      6.23529434e-01 6.23529434e-01 4.23529446e-01 5.49019635e-01
      6.07843161e-01 7.17647076e-01 7.72549093e-01 7.45098054e-01
      7.56862819e-01 7.84313798e-01 7.45098054e-01 6.31372571e-01
      7.01960802e-01 7.37254918e-01 7.37254918e-01</_>
    <_>
      0. 0. 1.17647070e-02 2.39215702e-01 6.31372571e-01 7.76470661e-01
      7.64705956e-01 7.37254918e-01 7.76470661e-01 7.84313798e-01
      7.84313798e-01 7.84313798e-01 7.84313798e-01 7.56862819e-01
      3.64705890e-01 1.96078438e-02 0. 0. 0. 0. 0. 0. 1.96078438e-02
      3.41176480e-01 7.33333349e-01 7.84313798e-01 6.82352960e-01
      4.74509835e-01 5.60784340e-01 5.88235319e-01 6.19607866e-01
      7.41176486e-01 7.76470661e-01 6.50980413e-01 2.58823544e-01
      1.17647070e-02 0. 0. 0. 0. 0. 0. 1.96078438e-02 3.64705890e-01
      7.56862819e-01 7.84313798e-01 7.33333349e-01 5.96078455e-01
      5.84313750e-01 5.88235319e-01 6.19607866e-01 7.41176486e-01
      7.64705956e-01 4.43137288e-01 5.09803966e-02 0. 0. 0. 0. 0. 0.
      3.92156886e-03 9.80392247e-02 4.70588267e-01 7.64705956e-01
      7.84313798e-01 7.84313798e-01 7.84313798e-01 7.84313798e-01
      7.84313798e-01 7.84313798e-01 7.84313798e-01 7.64705956e-01
      4.23529446e-01 3.13725509e-02 0. 0. 0. 0. 0. 0. 7.84313772e-03
      2.50980407e-01 6.86274529e-01 7.84313798e-01 7.84313798e-01
      7.84313798e-01 7.84313798e-01 7.84313798e-01 7.84313798e-01
      7.84313798e-01 7.84313798e-01 7.64705956e-01 4.23529446e-01
      3.13725509e-02 0. 0. 0. 0. 0. 0. 1.17647070e-02 2.66666681e-01
      7.05882370e-01 7.84313798e-01 7.84313798e-01 7.84313798e-01
      7.84313798e-01 7.84313798e-01 7.84313798e-01 7.84313798e-01
      7.84313798e-01 7.64705956e-01 4.43137288e-01 5.09803966e-02 0. 0.
      0. 7.84313772e-03 1.25490203e-01 0. 1.17647070e-02 2.66666681e-01
      7.05882370e-01 7.84313798e-01 7.84313798e-01 7.84313798e-01
      7.84313798e-01 7.84313798e-01 7.84313798e-01 7.84313798e-01
      7.84313798e-01 7.76470661e-01 6.50980413e-01 2.58823544e-01
      1.17647070e-02 0. 0. 3.92156877e-02 2.98039228e-01 0.
      1.17647070e-02 2.66666681e-01 7.05882370e-01 7.84313798e-01
      7.45098054e-01 6.43137276e-01 7.45098054e-01 7.84313798e-01
      7.80392230e-01 7.60784388e-01 7.76470661e-01 7.84313798e-01
      7.56862819e-01 3.64705890e-01 1.96078438e-02 0. 1.17647070e-02
      2.27450997e-01 4.98039246e-01 3.13725509e-02 1.96078438e-02
      2.66666681e-01 7.05882370e-01 7.84313798e-01 6.66666687e-01
      3.60784322e-01 6.66666687e-01 7.84313798e-01 7.56862819e-01
      6.27451003e-01 6.98039234e-01 7.76470661e-01 7.56862819e-01
      3.84313762e-01 3.52941193e-02 0. 7.84313772e-03 1.13725498e-01
      2.35294133e-01 3.29411775e-01 1.13725498e-01 2.66666681e-01
      7.05882370e-01 7.84313798e-01 6.58823550e-01 3.33333343e-01
      6.58823550e-01 7.84313798e-01 7.80392230e-01 7.05882370e-01
      5.76470613e-01 7.29411781e-01 7.76470661e-01 6.00000024e-01
      1.88235313e-01 7.84313772e-03 0. 2.35294141e-02 4.70588282e-02
      1.64705887e-01 1.09803930e-01 3.88235331e-01 7.29411781e-01
      7.84313798e-01 6.66666687e-01 3.60784322e-01 6.66666687e-01
      7.84313798e-01 7.84313798e-01 6.90196097e-01 4.47058856e-01
      6.90196097e-01 7.84313798e-01 7.05882370e-01 2.66666681e-01
      1.17647070e-02 1.17647070e-02 2.27450997e-01 4.98039246e-01 0.
      1.56862751e-01 6.31372571e-01 7.80392230e-01 7.84313798e-01
      7.37254918e-01 5.64705908e-01 6.15686297e-01 7.60784388e-01
      7.84313798e-01 6.58823550e-01 3.33333343e-01 6.58823550e-01
      7.84313798e-01 7.05882370e-01 2.66666681e-01 1.17647070e-02
      7.84313772e-03 1.33333340e-01 5.13725519e-01 0. 1.68627456e-01
      6.58823550e-01 7.84313798e-01 7.84313798e-01 7.37254918e-01
      5.17647088e-01 4.90196109e-01 7.37254918e-01 7.84313798e-01
      6.98039234e-01 4.74509835e-01 6.98039234e-01 7.84313798e-01
      7.09803939e-01 2.90196091e-01 1.96078438e-02 0. 1.96078438e-02
      2.74509817e-01 5.09803966e-02 2.03921586e-01 6.66666687e-01
      7.84313798e-01 7.84313798e-01 7.76470661e-01 7.45098054e-01
      7.52941251e-01 7.80392230e-01 7.84313798e-01 7.76470661e-01
      7.56862819e-01 7.76470661e-01 7.84313798e-01 7.60784388e-01
      5.33333361e-01 1.17647067e-01 0. 0. 2.35294141e-02 2.94117659e-01
      4.00000036e-01 7.05882370e-01 7.84313798e-01 7.84313798e-01
      7.84313798e-01 7.84313798e-01 7.84313798e-01 7.84313798e-01
      7.84313798e-01 7.84313798e-01 7.84313798e-01 7.84313798e-01
      7.84313798e-01 7.84313798e-01 6.98039234e-01 3.05882365e-01
      3.92156877e-02 0. 0. 1.13725498e-01 3.17647070e-01 6.98039234e-01
      7.84313798e-01 7.84313798e-01 7.84313798e-01 7.84313798e-01
      7.84313798e-01 7.64705956e-01 7.64705956e-01 7.84313798e-01
      7.84313798e-01 7.84313798e-01 7.84313798e-01 7.84313798e-01
      7.76470661e-01 5.88235319e-01 1.17647067e-01 0. 0. 7.84313753e-02
      3.05882365e-01 6.98039234e-01 7.76470661e-01 6.78431392e-01
      7.05882370e-01 7.80392230e-01 7.56862819e-01 5.25490224e-01
      4.47058856e-01 6.94117665e-01 7.80392230e-01 7.84313798e-01
      7.84313798e-01 7.84313798e-01 7.84313798e-01 6.66666687e-01
      2.66666681e-01 4.70588282e-02 0. 1.76470593e-01 4.78431404e-01
      7.45098054e-01 7.64705956e-01 5.49019635e-01 6.15686297e-01
      7.72549093e-01 5.96078455e-01 1.88235313e-01 1.09803930e-01
      5.33333361e-01 7.76470661e-01 7.84313798e-01 7.84313798e-01
      7.84313798e-01 7.84313798e-01 7.72549093e-01 6.54901981e-01
      3.72549027e-01 1.05882362e-01 2.54901975e-01 6.19607866e-01
      7.84313798e-01 7.64705956e-01 5.49019635e-01 6.15686297e-01
      7.68627524e-01 5.21568656e-01 1.01960793e-01 1.21568635e-01
      5.37254930e-01 7.76470661e-01 7.84313798e-01 7.76470661e-01
      6.78431392e-01 7.05882370e-01 7.76470661e-01 6.15686297e-01
      2.90196091e-01 9.80392247e-02 3.88235331e-01 6.58823550e-01
      7.84313798e-01 7.76470661e-01 6.78431392e-01 7.05882370e-01
      7.72549093e-01 5.96078455e-01 4.11764741e-01 5.49019635e-01
      7.01960802e-01 7.80392230e-01 7.84313798e-01 7.56862819e-01
      4.62745130e-01 5.52941203e-01 7.72549093e-01 6.86274529e-01
      3.13725501e-01 1.96078438e-02</_>
    <_>
      0. 0. 0. 3.92156886e-03 5.09803966e-02 9.41176564e-02
      9.80392247e-02 9.80392247e-02 9.80392247e-02 9.80392247e-02
      9.80392247e-02 9.80392247e-02 9.80392247e-02 9.80392247e-02
      9.80392247e-02 9.80392247e-02 9.80392247e-02 6.66666701e-02
      1.17647070e-02 0. 0. 0. 0. 3.92156877e-02 3.09803933e-01
      5.25490224e-01 5.41176498e-01 5.41176498e-01 5.41176498e-01
      5.41176498e-01 5.41176498e-01 5.41176498e-01 5.41176498e-01
      5.41176498e-01 5.41176498e-01 5.41176498e-01 5.37254930e-01
      4.35294151e-01 1.60784319e-01 7.84313772e-03 0. 0. 7.84313772e-03
      1.76470593e-01 5.68627477e-01 7.72549093e-01 7.84313798e-01
      7.84313798e-01 7.84313798e-01 7.84313798e-01 7.84313798e-01
      7.84313798e-01 7.84313798e-01 7.84313798e-01 7.84313798e-01
      7.84313798e-01 7.84313798e-01 7.49019623e-01 4.00000036e-01
      2.74509825e-02 0. 0. 1.17647070e-02 2.58823544e-01 6.50980413e-01
      7.76470661e-01 7.84313798e-01 7.84313798e-01 7.84313798e-01
      7.84313798e-01 7.84313798e-01 7.84313798e-01 7.84313798e-01
      7.84313798e-01 7.84313798e-01 7.84313798e-01 7.84313798e-01
      7.64705956e-01 4.23529446e-01 3.13725509e-02 0. 0. 1.17647070e-02
      2.39215702e-01 6.31372571e-01 7.76470661e-01 7.84313798e-01
      7.84313798e-01 7.52941251e-01 6.31372571e-01 5.45098066e-01
      5.41176498e-01 5.41176498e-01 5.41176498e-01 5.41176498e-01
      5.41176498e-01 5.41176498e-01 5.25490224e-01 2.90196091e-01
      1.96078438e-02 0. 0. 1.96078438e-02 3.41176480e-01 7.33333349e-01
      7.84313798e-01 7.84313798e-01 7.72549093e-01 5.49019635e-01
      1.80392161e-01 5.49019650e-02 5.09803966e-02 5.09803966e-02
      5.09803966e-02 5.09803966e-02 5.09803966e-02 5.09803966e-02
      4.70588282e-02 2.74509825e-02 0. 0. 0. 1.96078438e-02
      3.64705890e-01 7.56862819e-01 7.84313798e-01 7.84313798e-01
      7.76470661e-01 6.50980413e-01 2.58823544e-01 1.17647070e-02 0. 0.
      0. 0. 0. 0. 0. 0. 0. 0. 0. 1.96078438e-02 3.64705890e-01
      7.56862819e-01 7.84313798e-01 7.84313798e-01 7.80392230e-01
      6.74509823e-01 3.05882365e-01 5.49019650e-02 1.17647070e-02
      1.56862754e-02 1.96078438e-02 0. 0. 0. 0. 0. 0. 0. 0.
      1.96078438e-02 3.64705890e-01 7.56862819e-01 7.84313798e-01
      7.84313798e-01 7.80392230e-01 6.90196097e-01 5.68627477e-01
      4.94117677e-01 3.09803933e-01 3.37254912e-01 3.64705890e-01
      1.68627456e-01 1.45098045e-01 5.09803966e-02 0. 0. 0. 0. 0.
      1.96078438e-02 3.64705890e-01 7.56862819e-01 7.84313798e-01
      7.84313798e-01 7.84313798e-01 7.84313798e-01 7.84313798e-01
      7.76470661e-01 7.45098054e-01 7.49019623e-01 7.49019623e-01
      6.50980413e-01 5.96078455e-01 3.45098048e-01 1.76470593e-01
      4.70588282e-02 0. 0. 0. 1.96078438e-02 3.64705890e-01
      7.56862819e-01 7.84313798e-01 7.84313798e-01 7.84313798e-01
      7.84313798e-01 7.84313798e-01 7.84313798e-01 7.84313798e-01
      7.84313798e-01 7.84313798e-01 7.84313798e-01 7.76470661e-01
      7.45098054e-01 6.62745118e-01 4.11764741e-01 1.29411772e-01 0. 0.
      1.17647070e-02 2.50980407e-01 5.37254930e-01 6.39215708e-01
      5.80392182e-01 5.41176498e-01 5.41176498e-01 5.60784340e-01
      6.70588255e-01 7.45098054e-01 7.76470661e-01 7.84313798e-01
      7.84313798e-01 7.84313798e-01 7.84313798e-01 7.84313798e-01
      7.41176486e-01 4.62745130e-01 0. 0. 0. 2.35294141e-02
      6.66666701e-02 1.49019614e-01 9.01960805e-02 5.09803966e-02
      5.09803966e-02 7.05882385e-02 1.80392161e-01 3.05882365e-01
      4.98039246e-01 6.50980413e-01 7.76470661e-01 7.84313798e-01
      7.84313798e-01 7.84313798e-01 7.64705956e-01 5.09803951e-01 0. 0.
      0. 0. 0. 0. 0. 0. 0. 0. 0. 1.17647070e-02 5.88235334e-02
      3.88235331e-01 7.56862819e-01 7.84313798e-01 7.84313798e-01
      7.84313798e-01 7.76470661e-01 6.58823550e-01 0. 0. 0. 0. 0. 0. 0.
      0. 0. 0. 0. 0. 1.96078438e-02 3.64705890e-01 7.56862819e-01
      7.84313798e-01 7.84313798e-01 7.84313798e-01 7.84313798e-01
      7.60784388e-01 0. 0. 0. 0. 0. 0. 0. 0. 0. 0. 0. 0. 3.52941193e-02
      3.84313762e-01 7.56862819e-01 7.84313798e-01 7.84313798e-01
      7.84313798e-01 7.64705956e-01 5.09803951e-01 0. 0. 0.
      2.35294141e-02 4.31372561e-02 1.56862754e-02 1.17647070e-02
      2.35294141e-02 3.92156886e-03 3.92156886e-03 3.13725509e-02
      5.49019650e-02 2.19607860e-01 6.03921592e-01 7.76470661e-01
      7.84313798e-01 7.84313798e-01 7.76470661e-01 6.50980413e-01
      2.70588249e-01 0. 3.92156886e-03 9.01960805e-02 3.56862754e-01
      4.98039246e-01 3.45098048e-01 3.05882365e-01 3.92156899e-01
      2.74509817e-01 2.74509817e-01 4.39215720e-01 5.37254930e-01
      6.23529434e-01 7.60784388e-01 7.84313798e-01 7.84313798e-01
      7.72549093e-01 6.66666687e-01 3.29411775e-01 4.31372561e-02 0.
      7.84313772e-03 1.72549024e-01 5.76470613e-01 7.68627524e-01
      7.52941251e-01 7.45098054e-01 7.60784388e-01 7.41176486e-01
      7.41176486e-01 7.68627524e-01 7.84313798e-01 7.84313798e-01
      7.84313798e-01 7.80392230e-01 7.21568644e-01 5.17647088e-01
      2.27450997e-01 4.70588282e-02 0. 0. 0. 3.52941193e-02
      3.84313762e-01 7.56862819e-01 7.84313798e-01 7.84313798e-01
      7.84313798e-01 7.84313798e-01 7.84313798e-01 7.84313798e-01
      7.84313798e-01 7.84313798e-01 7.76470661e-01 6.43137276e-01
      3.33333343e-01 8.62745121e-02 7.84313772e-03 0. 0.</_>
    <_>
      0. 0. 0. 1.96078438e-02 2.94117659e-01 6.74509823e-01
      7.80392230e-01 7.84313798e-01 7.84313798e-01 7.84313798e-01
      7.84313798e-01 6.39215708e-01 1.76470593e-01 1.17647070e-02 0. 0.
      0. 0. 0. 0. 0. 0. 0. 2.74509825e-02 4.00000036e-01 7.49019623e-01
      7.84313798e-01 7.84313798e-01 7.84313798e-01 7.84313798e-01
      7.84313798e-01 6.78431392e-01 2.74509817e-01 3.13725509e-02 0. 0.
      0. 0. 0. 0. 0. 0. 7.84313772e-03 1.33333340e-01 5.25490224e-01
      7.72549093e-01 7.84313798e-01 7.84313798e-01 7.84313798e-01
      7.84313798e-01 7.84313798e-01 6.78431392e-01 2.74509817e-01
      3.13725509e-02 0. 0. 0. 0. 0. 0. 0. 3.92156886e-03 9.41176564e-02
      4.50980425e-01 7.45098054e-01 7.84313798e-01 7.84313798e-01
      7.84313798e-01 7.84313798e-01 7.84313798e-01 7.84313798e-01
      7.56862819e-01 4.70588267e-01 7.05882385e-02 0. 0. 0. 0. 0. 0. 0.
      1.96078438e-02 2.74509817e-01 6.90196097e-01 7.84313798e-01
      7.84313798e-01 7.84313798e-01 7.84313798e-01 7.84313798e-01
      7.84313798e-01 7.84313798e-01 6.66666687e-01 2.50980407e-01
      2.35294141e-02 0. 0. 0. 0. 0. 0. 0. 1.17647067e-01 5.33333361e-01
      7.60784388e-01 7.80392230e-01 7.60784388e-01 7.76470661e-01
      7.84313798e-01 7.84313798e-01 7.84313798e-01 7.84313798e-01
      6.19607866e-01 1.29411772e-01 0. 0. 0. 0. 0. 0. 0. 7.84313753e-02
      3.05882365e-01 6.98039234e-01 7.84313798e-01 7.29411781e-01
      5.05882382e-01 6.47058845e-01 7.76470661e-01 7.84313798e-01
      7.84313798e-01 7.84313798e-01 6.19607866e-01 1.29411772e-01 0. 0.
      0. 0. 0. 0. 0. 2.70588249e-01 6.00000024e-01 7.76470661e-01
      7.76470661e-01 6.00000024e-01 2.27450997e-01 3.13725501e-01
      6.98039234e-01 7.84313798e-01 7.84313798e-01 7.84313798e-01
      6.19607866e-01 1.29411772e-01 0. 0. 0. 0. 0. 0. 0. 6.19607866e-01
      7.33333349e-01 7.84313798e-01 7.37254918e-01 3.64705890e-01
      6.66666701e-02 2.78431386e-01 6.90196097e-01 7.84313798e-01
      7.84313798e-01 7.84313798e-01 6.66666687e-01 2.50980407e-01
      2.35294141e-02 0. 0. 0. 0. 0. 0. 7.84313798e-01 7.84313798e-01
      7.56862819e-01 5.05882382e-01 1.33333340e-01 3.92156877e-02
      2.78431386e-01 6.90196097e-01 7.84313798e-01 7.84313798e-01
      7.84313798e-01 7.25490212e-01 3.96078467e-01 5.49019650e-02 0. 0.
      0. 0. 0. 0. 7.84313798e-01 7.68627524e-01 5.72549045e-01
      1.80392161e-01 7.84313772e-03 0. 1.68627456e-01 6.58823550e-01
      7.84313798e-01 7.84313798e-01 7.84313798e-01 7.25490212e-01
      3.96078467e-01 5.49019650e-02 0. 0. 0. 0. 0. 0. 7.84313798e-01
      6.66666687e-01 2.50980407e-01 2.35294141e-02 0. 3.92156877e-02
      3.05882365e-01 6.98039234e-01 7.84313798e-01 7.84313798e-01
      7.84313798e-01 6.66666687e-01 2.50980407e-01 2.35294141e-02 0. 0.
      0. 0. 0. 0. 7.21568644e-01 5.13725519e-01 1.37254909e-01
      2.74509825e-02 0. 1.17647067e-01 5.88235319e-01 7.76470661e-01
      7.84313798e-01 7.84313798e-01 7.84313798e-01 6.19607866e-01
      1.29411772e-01 0. 0. 0. 0. 0. 0. 0. 7.21568644e-01 6.19607866e-01
      5.41176498e-01 4.03921604e-01 2.54901975e-01 3.33333343e-01
      6.70588255e-01 7.84313798e-01 7.84313798e-01 7.84313798e-01
      7.84313798e-01 6.70588255e-01 3.33333343e-01 2.47058839e-01
      2.47058839e-01 2.11764723e-01 7.84313753e-02 7.84313772e-03 0. 0.
      7.84313798e-01 7.84313798e-01 7.84313798e-01 7.60784388e-01
      7.37254918e-01 7.45098054e-01 7.72549093e-01 7.84313798e-01
      7.84313798e-01 7.84313798e-01 7.84313798e-01 7.72549093e-01
      7.45098054e-01 7.37254918e-01 7.37254918e-01 7.01960802e-01
      4.66666698e-01 8.62745121e-02 0. 0. 7.84313798e-01 7.84313798e-01
      7.84313798e-01 7.84313798e-01 7.84313798e-01 7.84313798e-01
      7.84313798e-01 7.84313798e-01 7.84313798e-01 7.84313798e-01
      7.84313798e-01 7.84313798e-01 7.84313798e-01 7.84313798e-01
      7.84313798e-01 7.84313798e-01 6.19607866e-01 1.29411772e-01 0. 0.
      6.70588255e-01 5.84313750e-01 6.03921592e-01 7.17647076e-01
      7.37254918e-01 7.45098054e-01 7.72549093e-01 7.84313798e-01
      7.84313798e-01 7.84313798e-01 7.84313798e-01 7.84313798e-01
      7.84313798e-01 7.84313798e-01 7.84313798e-01 7.84313798e-01
      6.19607866e-01 1.29411772e-01 0. 0. 1.80392161e-01 9.41176564e-02
      1.13725498e-01 2.27450997e-01 2.47058839e-01 3.01960796e-01
      5.56862772e-01 7.52941251e-01 7.84313798e-01 7.84313798e-01
      7.84313798e-01 7.84313798e-01 7.84313798e-01 7.84313798e-01
      7.84313798e-01 7.84313798e-01 6.19607866e-01 1.29411772e-01 0. 0.
      0. 0. 0. 0. 0. 8.62745121e-02 4.78431404e-01 7.45098054e-01
      7.84313798e-01 7.84313798e-01 7.84313798e-01 7.33333349e-01
      5.80392182e-01 5.41176498e-01 5.60784340e-01 6.39215708e-01
      4.62745130e-01 8.62745121e-02 0. 0. 0. 0. 0. 0. 0. 3.92156877e-02
      3.05882365e-01 6.98039234e-01 7.84313798e-01 7.84313798e-01
      7.84313798e-01 6.27451003e-01 1.68627456e-01 5.09803966e-02
      7.05882385e-02 1.49019614e-01 7.84313753e-02 7.84313772e-03 0. 0.</_>
    <_>
      0. 0. 0. 0. 0. 0. 5.88235334e-02 3.88235331e-01 5.05882382e-01
      4.15686309e-01 4.00000036e-01 4.07843173e-01 4.82352972e-01
      3.96078467e-01 3.76470625e-01 3.68627459e-01 3.45098048e-01
      1.72549024e-01 1.17647070e-02 0. 0. 0. 0. 0. 0. 0. 4.70588282e-02
      4.31372583e-01 6.43137276e-01 5.17647088e-01 5.01960814e-01
      5.05882382e-01 5.25490224e-01 5.01960814e-01 4.98039246e-01
      5.29411793e-01 6.11764729e-01 3.17647070e-01 1.96078438e-02 0. 0.
      0. 0. 0. 0. 0. 1.17647070e-02 2.66666681e-01 5.21568656e-01
      1.88235313e-01 1.05882362e-01 1.09803930e-01 1.09803930e-01
      1.09803930e-01 1.13725498e-01 2.27450997e-01 5.60784340e-01
      2.74509817e-01 1.17647070e-02 0. 0. 0. 0. 0. 0. 0. 0.
      6.66666701e-02 3.80392194e-01 2.35294133e-01 1.96078438e-02
      1.17647070e-02 0. 0. 1.56862754e-02 2.54901975e-01 4.15686309e-01
      9.01960805e-02 0. 0. 0. 0. 0. 0. 0. 0. 0. 3.92156886e-03
      1.52941182e-01 3.96078467e-01 2.90196091e-01 2.43137270e-01
      1.64705887e-01 1.60784319e-01 2.23529428e-01 4.70588267e-01
      2.31372565e-01 7.84313772e-03 0. 0. 0. 0. 0. 0. 0. 0. 0. 0.
      2.74509825e-02 3.56862754e-01 6.54901981e-01 6.27451003e-01
      6.19607866e-01 5.80392182e-01 5.37254930e-01 4.11764741e-01
      7.05882385e-02 0. 0. 0. 0. 0. 0. 0. 0. 0. 0. 0. 0. 2.19607860e-01
      6.94117665e-01 7.13725507e-01 6.82352960e-01 6.03921592e-01
      4.82352972e-01 1.92156881e-01 1.17647070e-02 0. 0. 0. 0. 0. 0. 0.
      0. 0. 0. 0. 0. 1.84313729e-01 6.27451003e-01 4.58823562e-01
      3.01960796e-01 3.72549027e-01 5.45098066e-01 2.00000018e-01
      3.92156886e-03 0. 0. 0. 0. 0. 0. 0. 0. 0. 0. 0. 0. 7.05882385e-02
      4.03921604e-01 2.07843155e-01 1.56862754e-02 1.25490203e-01
      4.07843173e-01 1.17647067e-01 0. 0. 0. 0. 0. 0. 0. 0. 0. 0. 0. 0.
      0. 1.56862754e-02 2.54901975e-01 1.76470593e-01 0. 2.00000018e-01
      4.43137288e-01 7.45098069e-02 0. 0. 0. 0. 0. 0. 0. 0. 0. 0. 0. 0.
      0. 4.31372561e-02 3.17647070e-01 1.72549024e-01 0. 1.52941182e-01
      4.43137288e-01 2.11764723e-01 1.05882362e-01 1.17647070e-02 0. 0.
      0. 0. 0. 0. 0. 0. 3.92156886e-03 3.13725509e-02 5.49019650e-02
      1.88235313e-01 3.72549027e-01 7.84313753e-02 0. 2.74509825e-02
      2.23529428e-01 3.64705890e-01 4.23529446e-01 9.41176564e-02 0. 0.
      0. 0. 0. 0. 4.70588282e-02 1.72549024e-01 2.19607860e-01
      3.88235331e-01 4.47058856e-01 4.62745130e-01 2.23529428e-01
      1.17647070e-02 0. 0. 1.56862754e-02 1.01960793e-01 4.11764741e-01
      1.52941182e-01 0. 0. 0. 0. 0. 0. 1.72549024e-01 5.13725519e-01
      4.03921604e-01 3.41176480e-01 2.23529428e-01 1.76470593e-01
      3.92156877e-02 0. 0. 0. 0. 2.35294141e-02 2.47058839e-01
      1.37254909e-01 0. 0. 0. 0. 0. 3.92156886e-03 2.27450997e-01
      4.00000036e-01 9.80392247e-02 5.88235334e-02 2.74509825e-02
      3.92156886e-03 0. 0. 0. 0. 0. 0. 1.41176477e-01 1.41176477e-01 0.
      0. 0. 0. 0. 3.92156886e-03 1.88235313e-01 3.72549027e-01
      2.19607860e-01 3.68627459e-01 2.66666681e-01 2.74509825e-02 0. 0.
      0. 0. 0. 3.92156886e-03 1.88235313e-01 2.11764723e-01
      7.84313772e-03 0. 0. 0. 0. 0. 1.09803930e-01 4.35294151e-01
      3.56862754e-01 3.45098048e-01 4.07843173e-01 1.56862751e-01
      1.56862754e-02 0. 0. 0. 1.96078438e-02 1.29411772e-01
      3.29411775e-01 1.76470593e-01 3.92156886e-03 0. 0. 0. 0. 0.
      1.56862754e-02 1.01960793e-01 6.27451017e-02 4.31372561e-02
      2.98039228e-01 4.54901993e-01 2.31372565e-01 3.13725509e-02
      4.31372561e-02 7.45098069e-02 2.07843155e-01 3.88235331e-01
      2.86274523e-01 5.09803966e-02 0. 0. 0. 0. 0. 0. 0. 0. 0.
      3.92156886e-03 5.88235334e-02 2.82352954e-01 4.47058856e-01
      3.17647070e-01 3.49019617e-01 3.25490206e-01 3.21568638e-01
      1.96078449e-01 3.52941193e-02 0. 0. 0. 0. 0. 0. 0. 0. 0. 0. 0. 0.
      3.92156877e-02 2.03921586e-01 2.43137270e-01 1.80392161e-01
      8.62745121e-02 3.52941193e-02 7.84313772e-03 0. 0. 0. 0.</_>
    <_>
      0. 1.09803930e-01 5.09803951e-01 7.56862819e-01 7.84313798e-01
      7.84313798e-01 7.84313798e-01 7.84313798e-01 7.84313798e-01
      7.84313798e-01 7.84313798e-01 7.84313798e-01 7.84313798e-01
      7.84313798e-01 7.56862819e-01 5.25490224e-01 1.64705887e-01
      1.56862754e-02 0. 0. 0. 1.56862751e-01 6.31372571e-01
      7.80392230e-01 7.84313798e-01 7.84313798e-01 7.84313798e-01
      7.84313798e-01 7.84313798e-01 7.84313798e-01 7.84313798e-01
      7.84313798e-01 7.84313798e-01 7.84313798e-01 7.80392230e-01
      7.21568644e-01 4.78431404e-01 1.13725498e-01 3.92156886e-03 0. 0.
      1.68627456e-01 6.58823550e-01 7.84313798e-01 7.56862819e-01
      7.37254918e-01 6.98039234e-01 6.39215708e-01 7.17647076e-01
      7.37254918e-01 7.45098054e-01 7.72549093e-01 7.84313798e-01
      7.84313798e-01 7.84313798e-01 7.84313798e-01 7.25490212e-01
      3.96078467e-01 5.49019650e-02 0. 0. 1.52941182e-01 5.49019635e-01
      5.49019635e-01 3.80392194e-01 2.50980407e-01 2.07843155e-01
      1.49019614e-01 2.27450997e-01 2.47058839e-01 3.33333343e-01
      6.70588255e-01 7.84313798e-01 7.84313798e-01 7.84313798e-01
      7.84313798e-01 7.76470661e-01 5.21568656e-01 7.84313753e-02 0. 0.
      5.09803966e-02 1.37254909e-01 6.66666701e-02 2.35294141e-02 0. 0.
      0. 0. 0. 8.62745121e-02 4.78431404e-01 7.45098054e-01
      7.84313798e-01 7.84313798e-01 7.84313798e-01 7.76470661e-01
      5.21568656e-01 7.84313753e-02 0. 0. 0. 0. 0. 0. 0. 0. 0. 0. 0.
      7.84313772e-03 1.96078449e-01 6.66666687e-01 7.84313798e-01
      7.84313798e-01 7.84313798e-01 7.76470661e-01 5.96078455e-01
      1.84313729e-01 7.84313772e-03 0. 0. 0. 0. 0. 0. 0. 0. 0. 0.
      3.92156877e-02 3.05882365e-01 6.98039234e-01 7.84313798e-01
      7.84313798e-01 7.84313798e-01 7.84313798e-01 7.49019623e-01
      4.00000036e-01 2.74509825e-02 0. 0. 0. 0. 0. 0. 0. 0. 0.
      3.92156886e-03 1.45098045e-01 6.00000024e-01 7.76470661e-01
      7.84313798e-01 7.84313798e-01 7.84313798e-01 7.80392230e-01
      6.86274529e-01 3.13725501e-01 1.96078438e-02 0. 0. 0. 0. 0. 0. 0.
      0. 7.84313772e-03 1.60784319e-01 4.74509835e-01 7.29411781e-01
      7.84313798e-01 7.84313798e-01 7.84313798e-01 7.84313798e-01
      7.25490212e-01 4.11764741e-01 7.45098069e-02 0. 0. 0. 0. 0. 0. 0.
      0. 7.84313772e-03 1.33333340e-01 5.05882382e-01 7.56862819e-01
      7.84313798e-01 7.84313798e-01 7.84313798e-01 7.80392230e-01
      7.21568644e-01 4.78431404e-01 1.13725498e-01 3.92156886e-03 0. 0.
      0. 0. 0. 0. 0. 1.17647070e-02 1.17647067e-01 4.54901993e-01
      7.45098054e-01 7.84313798e-01 7.84313798e-01 7.84313798e-01
      7.84313798e-01 7.09803939e-01 3.80392194e-01 8.62745121e-02
      7.84313772e-03 0. 0. 0. 0. 0. 0. 2.35294141e-02 1.60784319e-01
      3.05882365e-01 5.60784340e-01 7.37254918e-01 7.84313798e-01
      7.84313798e-01 7.84313798e-01 7.84313798e-01 7.45098054e-01
      4.50980425e-01 9.41176564e-02 3.92156886e-03 0. 0. 0. 0. 0.
      7.84313772e-03 1.13725498e-01 2.86274523e-01 5.68627477e-01
      7.41176486e-01 7.76470661e-01 7.84313798e-01 7.84313798e-01
      7.84313798e-01 7.84313798e-01 7.72549093e-01 5.25490224e-01
      1.33333340e-01 7.84313772e-03 0. 0. 0. 0. 0. 0. 3.52941193e-02
      3.60784322e-01 7.13725507e-01 7.68627524e-01 7.84313798e-01
      7.84313798e-01 7.84313798e-01 7.84313798e-01 7.76470661e-01
      7.05882370e-01 5.56862772e-01 2.90196091e-01 1.96078438e-02 0. 0.
      0. 0. 0. 0. 1.56862754e-02 2.11764723e-01 6.03921592e-01
      7.76470661e-01 7.84313798e-01 7.84313798e-01 7.84313798e-01
      7.84313798e-01 7.37254918e-01 5.60784340e-01 2.66666681e-01
      7.84313753e-02 2.74509825e-02 0. 0. 0. 0. 0. 0. 1.56862754e-02
      1.45098045e-01 5.41176498e-01 7.60784388e-01 7.84313798e-01
      7.84313798e-01 7.72549093e-01 6.78431392e-01 5.49019635e-01
      3.60784322e-01 1.13725498e-01 1.17647070e-02 0. 0. 0. 0. 0. 0. 0.
      0. 1.76470593e-01 4.78431404e-01 7.45098054e-01 7.84313798e-01
      7.84313798e-01 7.84313798e-01 6.66666687e-01 2.66666681e-01
      6.66666701e-02 2.35294141e-02 0. 0. 0. 0. 0. 0. 0. 0. 0. 0.
      2.54901975e-01 6.19607866e-01 7.84313798e-01 7.84313798e-01
      7.84313798e-01 7.84313798e-01 6.66666687e-01 2.54901975e-01
      1.29411772e-01 1.29411772e-01 5.49019650e-02 5.09803966e-02
      4.70588282e-02 2.74509825e-02 7.84313772e-03 3.13725509e-02
      4.70588282e-02 3.13725509e-02 3.92156886e-03 0. 2.54901975e-01
      6.19607866e-01 7.84313798e-01 7.84313798e-01 7.84313798e-01
      7.84313798e-01 7.68627524e-01 5.88235319e-01 5.13725519e-01
      6.11764729e-01 5.45098066e-01 5.41176498e-01 5.33333361e-01
      4.03921604e-01 2.86274523e-01 4.39215720e-01 5.29411793e-01
      3.56862754e-01 5.49019650e-02 0. 2.54901975e-01 6.19607866e-01
      7.84313798e-01 7.84313798e-01 7.84313798e-01 7.84313798e-01
      7.84313798e-01 7.68627524e-01 7.64705956e-01 7.84313798e-01
      7.84313798e-01 7.84313798e-01 7.84313798e-01 7.60784388e-01
      7.41176486e-01 7.68627524e-01 7.72549093e-01 5.21568656e-01
      7.84313753e-02 0.</_>
    <_>
      0. 0. 0. 0. 0. 0. 0. 0. 0. 0. 0. 0. 0. 0. 0. 0. 0. 0. 0. 0. 0. 0.
      0. 0. 0. 0. 0. 0. 2.35294141e-02 4.31372561e-02 2.35294141e-02
      3.92156877e-02 5.09803966e-02 4.70588282e-02 2.74509825e-02
      2.74509825e-02 1.17647070e-02 0. 0. 0. 0. 0. 0. 0. 0.
      7.84313772e-03 7.84313753e-02 2.19607860e-01 3.80392194e-01
      4.98039246e-01 3.92156899e-01 4.82352972e-01 5.41176498e-01
      5.29411793e-01 4.11764741e-01 4.00000036e-01 2.50980407e-01
      3.92156877e-02 0. 0. 0. 0. 0. 0. 3.92156886e-03 1.13725498e-01
      4.74509835e-01 7.05882370e-01 7.56862819e-01 7.76470661e-01
      7.60784388e-01 7.64705956e-01 7.60784388e-01 7.76470661e-01
      7.64705956e-01 7.60784388e-01 6.39215708e-01 2.43137270e-01
      2.35294141e-02 0. 0. 0. 0. 7.84313772e-03 1.60784319e-01
      4.74509835e-01 7.17647076e-01 7.45098054e-01 7.56862819e-01
      7.84313798e-01 7.76470661e-01 6.86274529e-01 6.03921592e-01
      7.49019623e-01 7.84313798e-01 7.84313798e-01 7.64705956e-01
      5.09803951e-01 9.41176564e-02 0. 0. 0. 3.92156886e-03
      1.09803930e-01 4.82352972e-01 7.52941251e-01 6.70588255e-01
      3.45098048e-01 4.94117677e-01 7.64705956e-01 6.98039234e-01
      3.56862754e-01 4.03921604e-01 7.25490212e-01 7.60784388e-01
      6.62745118e-01 7.33333349e-01 6.90196097e-01 3.33333343e-01
      4.31372561e-02 0. 0. 1.17647070e-02 2.15686291e-01 6.07843161e-01
      7.68627524e-01 5.88235319e-01 1.37254909e-01 3.64705890e-01
      7.56862819e-01 6.58823550e-01 1.76470593e-01 2.66666681e-01
      7.05882370e-01 7.09803939e-01 4.07843173e-01 6.07843161e-01
      7.68627524e-01 6.50980413e-01 2.70588249e-01 0. 0. 3.52941193e-02
      3.64705890e-01 7.37254918e-01 6.94117665e-01 3.05882365e-01
      5.88235334e-02 3.64705890e-01 7.56862819e-01 6.58823550e-01
      2.15686291e-01 3.64705890e-01 7.25490212e-01 7.05882370e-01
      3.05882365e-01 3.05882365e-01 6.70588255e-01 7.52941251e-01
      4.07843173e-01 0. 7.84313772e-03 1.88235313e-01 6.00000024e-01
      7.68627524e-01 6.31372571e-01 1.56862751e-01 3.52941193e-02
      3.84313762e-01 7.56862819e-01 6.58823550e-01 2.15686291e-01
      3.64705890e-01 7.25490212e-01 7.05882370e-01 2.66666681e-01
      7.05882385e-02 3.88235331e-01 7.21568644e-01 6.58823550e-01
      1.33333340e-01 6.27451017e-02 2.90196091e-01 7.09803939e-01
      7.29411781e-01 3.88235331e-01 1.05882362e-01 2.86274523e-01
      6.19607866e-01 7.68627524e-01 6.31372571e-01 1.64705887e-01
      2.50980407e-01 6.86274529e-01 7.29411781e-01 3.96078467e-01
      9.80392247e-02 2.58823544e-01 6.86274529e-01 7.84313798e-01
      1.49019614e-01 1.88235313e-01 5.41176498e-01 7.56862819e-01
      6.86274529e-01 2.50980407e-01 1.05882362e-01 4.86274540e-01
      7.49019623e-01 7.49019623e-01 4.86274540e-01 1.01960793e-01
      9.41176564e-02 4.50980425e-01 7.37254918e-01 7.17647076e-01
      4.70588267e-01 1.84313729e-01 4.70588267e-01 7.64705956e-01
      2.07843155e-01 4.86274540e-01 7.45098054e-01 7.72549093e-01
      5.80392182e-01 2.35294133e-01 3.13725501e-01 6.70588255e-01
      7.80392230e-01 7.29411781e-01 3.96078467e-01 1.37254909e-01
      1.52941182e-01 2.00000018e-01 5.49019635e-01 7.72549093e-01
      6.70588255e-01 3.45098048e-01 4.94117677e-01 7.64705956e-01
      6.19607866e-01 7.33333349e-01 7.84313798e-01 7.84313798e-01
      7.37254918e-01 6.39215708e-01 7.05882370e-01 7.76470661e-01
      7.84313798e-01 7.60784388e-01 6.23529434e-01 5.80392182e-01
      6.39215708e-01 5.68627477e-01 6.70588255e-01 7.76470661e-01
      7.72549093e-01 7.45098054e-01 7.56862819e-01 7.84313798e-01
      7.84313798e-01 7.84313798e-01 7.68627524e-01 7.41176486e-01
      7.37254918e-01 7.45098054e-01 7.72549093e-01 7.76470661e-01
      6.78431392e-01 6.54901981e-01 6.98039234e-01 6.23529434e-01
      7.01960802e-01 7.37254918e-01 7.37254918e-01 7.45098054e-01
      7.72549093e-01 7.64705956e-01 6.58823550e-01 6.47058845e-01
      7.84313798e-01 7.76470661e-01 6.03921592e-01 2.98039228e-01
      2.66666681e-01 4.31372583e-01 7.05882370e-01 6.90196097e-01
      3.45098048e-01 1.72549024e-01 2.07843155e-01 1.33333340e-01
      2.11764723e-01 2.47058839e-01 2.47058839e-01 3.33333343e-01
      6.62745118e-01 6.11764729e-01 2.35294133e-01 1.56862751e-01
      7.84313798e-01 7.64705956e-01 4.94117677e-01 7.45098069e-02
      4.31372561e-02 3.49019617e-01 6.98039234e-01 5.49019635e-01
      1.21568635e-01 3.92156886e-03 0. 0. 0. 0. 3.92156886e-03
      1.45098045e-01 5.96078455e-01 6.82352960e-01 3.37254912e-01
      6.66666701e-02 7.21568644e-01 5.64705908e-01 2.62745112e-01
      1.64705887e-01 2.86274523e-01 5.76470613e-01 7.64705956e-01
      6.94117665e-01 4.27451015e-01 2.54901975e-01 2.47058839e-01
      2.47058839e-01 2.47058839e-01 2.47058839e-01 2.74509817e-01
      4.31372583e-01 5.60784340e-01 7.29411781e-01 6.70588255e-01
      5.49019635e-01 7.21568644e-01 6.19607866e-01 5.52941203e-01
      6.31372571e-01 7.33333349e-01 7.68627524e-01 7.84313798e-01
      7.64705956e-01 7.17647076e-01 6.86274529e-01 6.86274529e-01
      6.82352960e-01 6.23529434e-01 6.00000024e-01 6.82352960e-01
      7.09803939e-01 7.05882370e-01 7.25490212e-01 7.37254918e-01
      7.37254918e-01 7.37254918e-01 7.33333349e-01 6.70588255e-01
      5.60784340e-01 5.41176498e-01 5.41176498e-01 5.37254930e-01
      4.39215720e-01 2.74509817e-01 2.47058839e-01 2.47058839e-01
      2.43137270e-01 1.84313729e-01 1.60784319e-01 2.39215702e-01
      2.47058839e-01 2.47058839e-01 2.47058839e-01 2.47058839e-01
      2.47058839e-01 2.47058839e-01 2.43137270e-01 1.80392161e-01
      7.05882385e-02 5.09803966e-02 5.09803966e-02 4.70588282e-02
      3.13725509e-02 3.92156886e-03 0. 0. 0. 0. 0. 0. 0. 0. 0. 0. 0.</_>
    <_>
      0. 0. 0. 3.13725509e-02 4.23529446e-01 7.64705956e-01
      7.84313798e-01 7.84313798e-01 7.84313798e-01 7.84313798e-01
      7.84313798e-01 7.84313798e-01 7.84313798e-01 7.84313798e-01
      7.84313798e-01 7.37254918e-01 5.49019635e-01 3.56862754e-01
      9.01960805e-02 3.92156886e-03 0. 0. 0. 3.13725509e-02
      4.23529446e-01 7.64705956e-01 7.84313798e-01 7.84313798e-01
      7.84313798e-01 7.37254918e-01 6.39215708e-01 6.98039234e-01
      7.52941251e-01 7.80392230e-01 7.84313798e-01 7.76470661e-01
      7.45098054e-01 6.54901981e-01 3.09803933e-01 1.96078438e-02 0. 0.
      0. 2.74509825e-02 4.00000036e-01 7.49019623e-01 7.33333349e-01
      5.80392182e-01 5.29411793e-01 3.60784322e-01 1.52941182e-01
      2.11764723e-01 4.11764741e-01 6.86274529e-01 7.60784388e-01
      7.84313798e-01 7.84313798e-01 7.72549093e-01 5.25490224e-01
      1.41176477e-01 0. 0. 0. 7.84313772e-03 1.60784319e-01
      4.35294151e-01 4.31372583e-01 1.29411772e-01 4.70588282e-02
      2.35294141e-02 0. 3.92156886e-03 8.23529437e-02 2.39215702e-01
      5.33333361e-01 7.72549093e-01 7.84313798e-01 7.84313798e-01
      7.33333349e-01 3.60784322e-01 0. 0. 0. 0. 3.92156886e-03
      3.13725509e-02 3.92156877e-02 7.84313772e-03 0. 0. 0. 0. 0.
      3.13725509e-02 4.23529446e-01 7.64705956e-01 7.84313798e-01
      7.84313798e-01 7.56862819e-01 4.07843173e-01 0. 0. 0. 0. 0. 0. 0.
      0. 0. 0. 0. 0. 0. 3.13725509e-02 4.23529446e-01 7.64705956e-01
      7.84313798e-01 7.84313798e-01 7.76470661e-01 6.58823550e-01 0. 0.
      0. 0. 0. 0. 0. 0. 0. 0. 0. 0. 0. 3.13725509e-02 4.23529446e-01
      7.64705956e-01 7.84313798e-01 7.84313798e-01 7.84313798e-01
      7.60784388e-01 0. 0. 0. 0. 0. 0. 0. 0. 0. 0. 0. 0. 7.84313772e-03
      1.33333340e-01 5.25490224e-01 7.72549093e-01 7.84313798e-01
      7.84313798e-01 7.64705956e-01 5.09803951e-01 0. 0. 0. 0. 0. 0. 0.
      0. 0. 0. 0. 3.92156886e-03 7.84313753e-02 4.27451015e-01
      7.41176486e-01 7.84313798e-01 7.84313798e-01 7.76470661e-01
      6.50980413e-01 2.70588249e-01 0. 0. 0. 0. 0. 0. 0. 0. 0. 0.
      3.92156877e-02 1.96078449e-01 3.21568638e-01 5.80392182e-01
      7.72549093e-01 7.84313798e-01 7.80392230e-01 6.90196097e-01
      3.33333343e-01 4.31372561e-02 1.64705887e-01 5.09803966e-02 0. 0.
      0. 0. 0. 0. 0. 2.35294141e-02 2.43137270e-01 6.27451003e-01
      7.37254918e-01 7.56862819e-01 7.84313798e-01 7.84313798e-01
      7.25490212e-01 4.11764741e-01 7.45098069e-02 0. 3.29411775e-01
      1.05882362e-01 0. 0. 0. 0. 0. 0. 7.84313772e-03 1.80392161e-01
      5.72549045e-01 7.68627524e-01 7.84313798e-01 7.84313798e-01
      7.80392230e-01 7.21568644e-01 4.78431404e-01 1.13725498e-01
      3.92156886e-03 0. 3.13725509e-02 1.17647070e-02 0. 0. 0. 0. 0.
      1.96078438e-02 1.52941182e-01 5.05882382e-01 7.56862819e-01
      7.84313798e-01 7.84313798e-01 7.76470661e-01 6.43137276e-01
      3.33333343e-01 8.62745121e-02 7.84313772e-03 0. 0. 0. 0. 0. 0. 0.
      3.92156877e-02 1.96078449e-01 3.49019617e-01 6.03921592e-01
      7.52941251e-01 7.84313798e-01 7.84313798e-01 7.68627524e-01
      7.33333349e-01 5.76470613e-01 1.88235313e-01 7.84313772e-03 0. 0.
      0. 0. 0. 0. 0. 3.92156886e-03 1.45098045e-01 5.88235319e-01
      7.52941251e-01 7.80392230e-01 7.84313798e-01 7.76470661e-01
      7.41176486e-01 6.31372571e-01 3.80392194e-01 2.27450997e-01
      8.23529437e-02 3.92156886e-03 0. 0. 0. 0. 0. 0. 0. 5.49019650e-02
      3.96078467e-01 7.25490212e-01 7.84313798e-01 7.84313798e-01
      7.80392230e-01 6.70588255e-01 3.49019617e-01 2.23529428e-01
      1.09803930e-01 7.84313772e-03 0. 0. 0. 0. 0. 0. 0. 0. 0.
      9.80392247e-02 5.33333361e-01 7.76470661e-01 7.84313798e-01
      7.84313798e-01 7.09803939e-01 3.72549027e-01 5.88235334e-02 0. 0.
      0. 0. 0. 0. 0. 0. 0. 0. 0. 1.96078438e-02 3.13725501e-01
      6.86274529e-01 7.80392230e-01 7.84313798e-01 7.64705956e-01
      4.90196109e-01 1.09803930e-01 3.92156886e-03 0. 0. 0. 0.
      1.17647070e-02 3.92156877e-02 4.70588282e-02 2.35294141e-02 0. 0.
      0. 3.13725509e-02 4.23529446e-01 7.64705956e-01 7.84313798e-01
      7.84313798e-01 7.76470661e-01 6.23529434e-01 3.49019617e-01
      2.07843155e-01 8.23529437e-02 5.49019650e-02 1.52941182e-01
      2.39215702e-01 3.05882365e-01 4.90196109e-01 5.29411793e-01
      3.88235331e-01 0. 0. 3.92156886e-03 1.13725498e-01 5.05882382e-01
      7.68627524e-01 7.84313798e-01 7.84313798e-01 7.84313798e-01
      7.80392230e-01 7.52941251e-01 6.94117665e-01 5.72549045e-01
      5.45098066e-01 6.43137276e-01 7.29411781e-01 7.45098054e-01
      7.76470661e-01 7.76470661e-01 6.58823550e-01</_>
    <_>
      0. 0. 0. 0. 0. 0. 0. 0. 0. 0. 0. 0. 0. 0. 0. 0. 0. 0. 0. 0. 0. 0.
      0. 0. 0. 0. 1.17647070e-02 3.92156877e-02 5.09803966e-02
      5.09803966e-02 5.09803966e-02 4.70588282e-02 3.52941193e-02
      2.74509825e-02 4.70588282e-02 3.92156877e-02 1.17647070e-02 0. 0.
      0. 0. 0. 0. 0. 0. 7.84313772e-03 1.41176477e-01 4.58823562e-01
      5.41176498e-01 5.41176498e-01 5.29411793e-01 4.94117677e-01
      3.37254912e-01 2.98039228e-01 5.17647088e-01 4.90196109e-01
      2.54901975e-01 3.92156877e-02 0. 0. 0. 0. 0. 0. 0. 8.62745121e-02
      4.23529446e-01 5.45098066e-01 6.50980413e-01 7.76470661e-01
      6.98039234e-01 3.60784322e-01 2.58823544e-01 4.94117677e-01
      7.41176486e-01 6.47058845e-01 5.60784340e-01 2.35294133e-01
      2.35294141e-02 0. 0. 0. 0. 0. 0. 1.17647067e-01 4.31372583e-01
      1.72549024e-01 2.86274523e-01 6.27451003e-01 5.29411793e-01
      1.25490203e-01 1.72549024e-01 5.68627477e-01 5.92156887e-01
      2.50980407e-01 3.05882365e-01 4.23529446e-01 9.41176564e-02 0. 0.
      0. 0. 0. 0. 3.92156877e-02 1.41176477e-01 3.92156877e-02
      5.09803966e-02 3.92156899e-01 3.92156899e-01 7.05882385e-02
      3.52941193e-02 3.56862754e-01 3.56862754e-01 3.52941193e-02
      1.13725498e-01 3.60784322e-01 1.84313729e-01 1.17647070e-02 0. 0.
      0. 0. 3.92156877e-02 1.13725498e-01 3.92156877e-02 0.
      2.74509825e-02 3.72549027e-01 4.74509835e-01 1.05882362e-01
      1.96078438e-02 3.13725501e-01 3.13725501e-01 1.96078438e-02
      1.17647070e-02 1.17647067e-01 1.33333340e-01 1.17647070e-02 0. 0.
      0. 3.92156877e-02 2.74509817e-01 2.66666681e-01 4.70588282e-02 0.
      7.84313772e-03 1.13725498e-01 1.01960793e-01 1.17647070e-02
      1.17647070e-02 1.88235313e-01 1.88235313e-01 1.17647070e-02
      7.84313772e-03 1.52941182e-01 2.15686291e-01 1.96078438e-02 0. 0.
      1.17647070e-02 2.27450997e-01 4.43137288e-01 1.80392161e-01
      7.84313772e-03 0. 7.84313772e-03 8.62745121e-02 6.27451017e-02
      3.92156886e-03 3.92156886e-03 8.23529437e-02 8.23529437e-02
      3.92156886e-03 0. 1.96078438e-02 1.25490203e-01 1.13725498e-01 0.
      0. 1.96078438e-02 1.29411772e-01 1.29411772e-01 1.96078438e-02
      4.31372561e-02 1.80392161e-01 2.39215702e-01 2.00000018e-01
      6.66666701e-02 3.92156886e-03 7.84313772e-03 1.13725498e-01
      2.35294133e-01 2.11764723e-01 7.84313753e-02 2.74509825e-02
      3.21568638e-01 4.54901993e-01 0. 3.92156886e-03 1.05882362e-01
      1.49019614e-01 1.17647070e-02 0. 9.80392247e-02 4.66666698e-01
      6.58823550e-01 3.17647070e-01 1.56862754e-02 0. 1.17647070e-02
      2.27450997e-01 4.98039246e-01 6.11764729e-01 4.35294151e-01
      9.80392247e-02 3.41176480e-01 7.05882370e-01 0. 1.56862754e-02
      2.07843155e-01 2.62745112e-01 2.35294141e-02 7.84313772e-03
      1.84313729e-01 6.27451003e-01 5.21568656e-01 1.33333340e-01
      7.84313772e-03 0. 1.96078438e-02 7.45098069e-02 2.50980407e-01
      5.64705908e-01 4.43137288e-01 9.01960805e-02 2.39215702e-01
      6.23529434e-01 1.56862754e-02 1.45098045e-01 5.29411793e-01
      5.01960814e-01 1.60784319e-01 1.25490203e-01 4.58823562e-01
      7.21568644e-01 5.13725519e-01 2.43137270e-01 2.35294133e-01
      2.11764723e-01 2.94117659e-01 4.66666698e-01 6.03921592e-01
      7.37254918e-01 6.39215708e-01 3.21568638e-01 4.31372583e-01
      6.94117665e-01 2.07843155e-01 4.74509835e-01 6.35294139e-01
      5.29411793e-01 3.88235331e-01 2.90196091e-01 3.17647070e-01
      4.82352972e-01 3.92156899e-01 3.68627459e-01 4.35294151e-01
      2.58823544e-01 2.11764723e-01 2.39215702e-01 2.94117659e-01
      5.76470613e-01 7.01960802e-01 4.39215720e-01 2.47058839e-01
      2.43137270e-01 6.03921592e-01 5.88235319e-01 2.58823544e-01
      7.05882385e-02 5.09803966e-02 7.45098069e-02 1.33333340e-01
      7.05882385e-02 2.74509825e-02 2.74509825e-02 3.92156877e-02
      1.17647070e-02 0. 0. 2.35294141e-02 2.50980407e-01 5.60784340e-01
      2.74509817e-01 3.13725509e-02 0. 5.76470613e-01 2.98039228e-01
      3.92156877e-02 0. 0. 6.27451017e-02 2.27450997e-01 6.27451017e-02
      0. 0. 0. 0. 0. 0. 0. 1.29411772e-01 5.60784340e-01 3.96078467e-01
      5.49019650e-02 0. 1.64705887e-01 5.09803966e-02 0. 0. 0.
      7.05882385e-02 2.54901975e-01 7.05882385e-02 0. 0. 7.84313772e-03
      2.74509825e-02 7.84313772e-03 2.35294141e-02 6.66666701e-02
      2.66666681e-01 6.19607866e-01 4.35294151e-01 9.01960805e-02
      1.29411772e-01 2.47058839e-01 2.03921586e-01 8.23529437e-02
      5.09803966e-02 6.27451017e-02 2.27450997e-01 4.74509835e-01
      2.15686291e-01 1.01960793e-01 1.01960793e-01 1.84313729e-01
      3.64705890e-01 2.47058839e-01 2.43137270e-01 3.09803933e-01
      4.62745130e-01 6.78431392e-01 6.54901981e-01 3.29411775e-01
      2.70588249e-01 6.23529434e-01 4.90196109e-01 3.25490206e-01
      2.94117659e-01 2.86274523e-01 2.35294133e-01 2.23529428e-01
      1.41176477e-01 1.01960793e-01 1.01960793e-01 1.41176477e-01
      2.23529428e-01 2.00000018e-01 1.29411772e-01 5.49019650e-02
      8.23529437e-02 2.07843155e-01 3.29411775e-01 2.62745112e-01
      4.70588282e-02 1.80392161e-01 9.01960805e-02 5.09803966e-02
      5.09803966e-02 4.31372561e-02 1.56862754e-02 0. 0. 0. 0. 0. 0. 0.
      0. 0. 0. 0. 1.56862754e-02 1.96078438e-02 0.</_>
    <_>
      4.90196109e-01 5.52941203e-01 7.37254918e-01 7.84313798e-01
      7.84313798e-01 7.84313798e-01 7.84313798e-01 7.84313798e-01
      7.84313798e-01 7.84313798e-01 7.84313798e-01 7.84313798e-01
      7.84313798e-01 7.84313798e-01 7.84313798e-01 7.05882370e-01
      3.37254912e-01 4.70588282e-02 0. 0. 7.37254918e-01 7.45098054e-01
      7.76470661e-01 7.84313798e-01 7.84313798e-01 7.84313798e-01
      7.84313798e-01 7.84313798e-01 7.84313798e-01 7.84313798e-01
      7.84313798e-01 7.84313798e-01 7.84313798e-01 7.84313798e-01
      7.84313798e-01 6.74509823e-01 2.31372565e-01 3.92156877e-02
      3.92156886e-03 0. 7.84313798e-01 7.84313798e-01 7.84313798e-01
      7.84313798e-01 7.56862819e-01 7.37254918e-01 7.37254918e-01
      7.37254918e-01 7.56862819e-01 7.84313798e-01 7.84313798e-01
      7.84313798e-01 7.84313798e-01 7.84313798e-01 7.84313798e-01
      7.45098054e-01 5.37254930e-01 2.35294133e-01 3.13725509e-02 0.
      7.84313798e-01 7.84313798e-01 7.76470661e-01 6.58823550e-01
      3.92156899e-01 2.50980407e-01 2.47058839e-01 2.58823544e-01
      4.74509835e-01 7.45098054e-01 7.84313798e-01 7.84313798e-01
      7.84313798e-01 7.84313798e-01 7.84313798e-01 7.84313798e-01
      6.27451003e-01 1.52941182e-01 7.84313772e-03 2.35294141e-02
      7.68627524e-01 7.45098054e-01 6.58823550e-01 3.29411775e-01
      3.92156877e-02 0. 0. 7.84313772e-03 1.33333340e-01 5.25490224e-01
      7.72549093e-01 7.84313798e-01 7.84313798e-01 7.84313798e-01
      7.84313798e-01 7.84313798e-01 6.70588255e-01 3.33333343e-01
      2.54901975e-01 3.96078467e-01 4.43137288e-01 3.05882365e-01
      1.76470593e-01 4.70588282e-02 0. 0. 0. 0. 3.13725509e-02
      4.23529446e-01 7.64705956e-01 7.84313798e-01 7.84313798e-01
      7.84313798e-01 7.84313798e-01 7.84313798e-01 7.72549093e-01
      7.45098054e-01 7.37254918e-01 7.60784388e-01 3.13725509e-02
      1.17647070e-02 0. 0. 0. 0. 0. 7.84313772e-03 1.33333340e-01
      5.25490224e-01 7.72549093e-01 7.84313798e-01 7.84313798e-01
      7.84313798e-01 7.84313798e-01 7.76470661e-01 7.45098054e-01
      7.52941251e-01 7.80392230e-01 7.84313798e-01 0. 0. 0. 0. 0. 0. 0.
      1.96078438e-02 3.41176480e-01 7.33333349e-01 7.84313798e-01
      7.84313798e-01 7.84313798e-01 7.84313798e-01 7.84313798e-01
      7.37254918e-01 5.56862772e-01 5.88235319e-01 7.56862819e-01
      7.84313798e-01 0. 0. 0. 0. 0. 0. 0. 3.52941193e-02 3.84313762e-01
      7.56862819e-01 7.84313798e-01 7.84313798e-01 7.84313798e-01
      7.84313798e-01 7.80392230e-01 7.13725507e-01 5.45098066e-01
      5.13725519e-01 6.47058845e-01 7.76470661e-01 0. 0. 0. 0. 0.
      3.92156877e-02 1.96078449e-01 3.49019617e-01 6.23529434e-01
      7.76470661e-01 7.84313798e-01 7.84313798e-01 7.84313798e-01
      7.84313798e-01 7.09803939e-01 3.80392194e-01 9.80392247e-02
      8.23529437e-02 4.11764741e-01 7.56862819e-01 1.64705887e-01
      5.09803966e-02 0. 0. 3.92156886e-03 1.45098045e-01 5.88235319e-01
      7.52941251e-01 7.80392230e-01 7.84313798e-01 7.84313798e-01
      7.84313798e-01 7.76470661e-01 6.58823550e-01 3.64705890e-01
      9.01960805e-02 1.17647070e-02 1.88235313e-01 6.00000024e-01
      7.76470661e-01 3.29411775e-01 1.05882362e-01 7.84313772e-03
      1.13725498e-01 2.66666681e-01 4.78431404e-01 7.29411781e-01
      7.84313798e-01 7.84313798e-01 7.84313798e-01 7.84313798e-01
      7.84313798e-01 7.49019623e-01 4.19607878e-01 4.70588282e-02 0.
      7.84313772e-03 2.50980407e-01 6.86274529e-01 7.84313798e-01
      3.13725509e-02 1.17647070e-02 9.41176564e-02 4.47058856e-01
      7.21568644e-01 7.68627524e-01 7.84313798e-01 7.84313798e-01
      7.84313798e-01 7.84313798e-01 7.76470661e-01 7.01960802e-01
      4.66666698e-01 1.60784319e-01 7.84313772e-03 0. 3.92156886e-03
      9.41176564e-02 4.47058856e-01 7.17647076e-01 1.56862754e-02
      8.62745121e-02 3.80392194e-01 7.09803939e-01 7.84313798e-01
      7.84313798e-01 7.84313798e-01 7.84313798e-01 7.84313798e-01
      7.80392230e-01 6.70588255e-01 3.05882365e-01 6.27451017e-02
      3.92156886e-03 0. 0. 0. 1.17647070e-02 2.19607860e-01
